{"W1": [[0.1527442279583715, -0.011288134581076557, -0.20952224610153636, -0.07364597899319636, 0.042643836335921774, -0.1109840678844263, 0.00309788520134414, 0.18148907029729136, 0.1130452328830695, -0.033080712502734, 0.06763659934014964, 0.07874495316904415], [-0.06900542083032664, 0.021022168279476873, 0.10361773997113806, -0.0786781240347252, -0.03858441959935854, 0.08198990218667959, 0.2431756019312654, -0.09437881286287272, 0.052191124167519476, -0.0495222090315422, -0.03740109276789718, 0.07900888303671282], [0.08327960244916945, -0.05498483816804274, -0.030047061429949236, -0.017081886448931844, -0.060366164636059365, -0.06335771914557106, -0.011762703728028864, 0.1068701439233309, 0.06956213583933049, -0.08870597877476684, 0.19104777968768716, -0.05108738791234716], [-0.16388938924333885, 0.021125682809938272, -0.19758958317552996, -0.22425924829003208, 0.038869914979762075, 0.0843576669942562, -0.009094071229828261, -0.061992279286167656, -0.031444240644026976, 0.11244178285584164, -0.038866834244658255, 0.0265387164655868], [0.056537795860704, -0.0973532578904962, -0.1444093308444843, -0.07555414167939922, 0.09519731757287246, 0.07112570006022455, 0.16076823260448464, 0.0005363269130930459, -0.1072311314640694, 0.057784619439164464, -0.10307028147046715, 0.0890452689742659], [-0.10826970554428675, 0.01369905559706765, 0.08345800458604763, 0.10126889621388224, -0.1346023552664736, -0.10113481993930018, -0.0011663517425962433, 0.09256427377486799, 0.2451951045589501, -0.05942710854713212, -0.18763890974928535, 0.06995205603256378]], "b1": [0.0, 0.0, 0.0, 0.0, 0.0, 0.0, 0.0, 0.0, 0.0, 0.0, 0.0, 0.0], "W2": [[0.05440064702943052, 0.15265297752746762], [-0.00409063260462142, 0.0050427218670968076], [0.17714474249540874, 0.16419066097981583], [0.2496052098360833, -0.10359932269709936], [0.07040077210300742, 0.09962155596778925], [0.09830970849755243, -0.08981539835864892], [0.04666259206120957, 0.23843856721735116], [0.19214329902699803, 0.051622996091066756], [-0.10438850864413673, 0.10122121235860486], [0.036236438840295, -0.05000185128985266], [-0.1521472012683864, 0.008896441540991762], [-0.11951185889087869, -0.15401122604763212]], "b2": [0.019839894398058784, 0.008328018798771228], "trained_epochs": 3}