{"W1": [[-0.47914829485465227, 0.6213608277469659, -5.739320005741726, 0.25748028499647596, -0.4374655886787358, -1.001083434795273, 0.4640805213567504, -5.0710422724315, -0.711883922534443, -0.6912515758860064, -3.491868220840978, 0.7430203640506835, -0.9595927986880318, -0.718636641632278, -0.6606150744811154, -0.4468992971238461], [-0.44759078890479986, -1.6734130412246178, -24.16969116629472, -0.9948363767215245, -0.2389605343998732, -0.29239091008875456, -1.39460660459677, -11.996370064198015, -0.119393643314288, -0.06261686053767507, -11.967299515962212, -0.9028310759075888, -3.845705325640677, -0.6100331604558921, -0.1677108291051333, -1.2390833561874117], [-0.13415503130364, -0.873525006326706, -1.2082851925366938, 0.7696851363199322, -0.7515425710756084, -0.6822898373643631, 0.18397977414232988, -0.23218582135938493, -0.2568921262967222, -0.5565145772526956, -0.3824769474634927, -0.5914682992368199, -0.9041124480878315, -1.1659926360164672, -0.3894444028319854, 0.19408524655338782], [-0.467234946893049, -0.8844353727445516, 0.43628846656209147, -0.057204116024193695, -0.6295120792652088, -0.20270164228889387, 0.059623488573418724, -0.8138160829466067, -0.2460247087953526, 0.05949722650915868, 0.049595638707087615, -0.19767542203363825, 0.3698309027262231, 0.1025038124114564, 0.26736426087604165, -0.5770180590301227]], "b1": [[0.0, 0.0, -1.0010302347778854, -0.058642588011306514, -0.04871865145187086, 0.0, -0.20195551986176558, -0.518298019841106, 0.0, 0.0, -0.5029056504080319, 0.0, -0.16838306610670983, 0.0, 0.0, -0.05066960994513032]], "W2": [[-0.16908571893825244, 0.06953422700549586, 0.304457730624792, 0.08610592259637748, -0.14048391497634602, -0.45303105489283224, 0.12694012679377245, 0.13643821217740834], [-0.48518624697997026, 0.3298064535043303, -0.06514361060051062, 0.029271832390533388, -0.7199853570034404, -0.0208603918491301, -0.4417847165656294, 0.14938961665822903], [15.883787863609962, 0.2458147942356953, -0.5165488419135443, -4.817406551147636, -27.309364797461047, -3.4527080454875456, -0.6097137509250782, -0.356177205812059], [0.2752073948646474, -0.4620473876972896, -0.296787419377244, -0.1765856413130043, -0.41046090032739596, 0.0015705302151879843, 0.22294393867430598, -0.3022171620648804], [-0.0708798737322066, -0.5660368884739078, 0.5775825805943903, -3.426517926200801, 1.7839832425953877, -2.8530276668515615, -1.012589083244892, -0.2774121491265682], [0.03885916367120028, 0.3331856611502568, 0.12117406620047892, 0.24746920001811812, 0.07605277539826784, 0.40969572148124606, -0.41946646944476723, 0.66498292611647], [0.31009484901575673, 0.04050707557719009, 0.11242115243628852, -2.1632466505461365, 0.8494383841767064, -1.681557901826102, -0.30028286407958754, 0.07489821909504481], [8.94932031778923, -0.6209329880168587, -0.29078202789443647, -2.6506680350200074, -15.729791486354731, -1.1293070257115212, -0.9711595806646454, -0.20411481072504462], [-0.09381774688133225, -0.18838417431534124, 0.18908847896796308, 0.06284730304133755, -0.3091429328691759, 0.4896804317160106, -0.06125807077320949, 0.18012841467239268], [0.07401541896926866, 0.19934243774590762, 0.118865420413631, -0.7102119183040481, -0.00510796708167131, -0.23319791095495107, -0.14686014190794439, -0.34832982594368583], [2.550197798000599, -0.21667468622004976, -0.10995023269633715, -2.5804777886913657, -4.152590323880327, -1.5216908160542868, -1.156278869398315, -0.20028209667657945], [-0.15562993536882275, -0.012553192678938164, 0.34655287233844917, -0.15778284338737292, -0.34704863955959264, -0.0492356294725265, 0.26652394108734123, 0.26146244049989376], [-0.6617124599473593, -0.015170187436061848, 0.33740977688882867, -1.3158903533767672, 0.5547517631480047, -0.7167769705156092, 0.3041775114820657, -0.37705068765318006], [-0.9119892196476501, -0.30075221753089104, 0.19926872159743456, 0.08570873580864641, 0.05671100938513718, 0.09059086862577304, -0.6227380423901052, 0.3670321213838396], [-0.08053091163852366, 0.4797848691996532, -0.612087428493409, 0.2153049421048431, -0.267883281559026, 0.18458785072957984, -0.17734587912654004, -0.12824506940826266], [-0.4955991202950352, -0.22595750901652847, -0.16872524164997046, 0.12363904417676552, -0.16592549802823756, 0.05357576214457415, 0.28742450217543575, -0.6363154120605649]], "b2": [[0.1708867948051288, 0.0, 0.0, -0.2725091173685776, -0.635779998068932, -0.14811043017010453, -0.13225996853234118, 0.0]], "W3": [[-2.704579928878449], [-0.015274822331564021], [0.2253915512081282], [1.0585762024021728], [-64.9446766000684], [1.0315729120302186], [3.105143922854078], [0.003927327134827294]], "b3": [[-0.2383381825628891]], "epochs": 19, "architecture": [4, 16, 1]}