{"W1": [[-0.47914829485465227, 0.6213608277469659, 1.2456724333460367, 0.25748028499647596, -0.09643502851563977, -1.001083434795273, 0.9485319162027445, -1.4429561335437584, -0.711883922534443, -0.6912515758860064, 0.028471332015245165, 0.7430203640506835, 0.219088664058937, -0.718636641632278, -0.6606150744811154, -0.09221202750793385], [-0.44759078890479986, -1.6734130412246178, 0.7767104018758622, -0.9948363767215245, 0.9790057518968983, -0.29239091008875456, 0.3355769484246377, 0.9610804318296368, -0.119393643314288, -0.06261686053767507, 0.6053417442385852, -0.9028310759075888, 0.36387132702706926, -0.6100331604558921, -0.1677108291051333, 0.027656892440846157], [-0.13415503130364, -0.873525006326706, -1.2082851925366938, 0.7696851363199322, -0.7515425710756084, -0.6822898373643631, 0.18397977414232988, -0.23218582135938493, -0.2568921262967222, -0.5565145772526956, -0.3824769474634927, -0.5914682992368199, -0.9041124480878315, -1.1659926360164672, -0.3894444028319854, 0.19408524655338782], [-0.467234946893049, -0.8844353727445516, 0.43628846656209147, -0.057204116024193695, -0.6295120792652088, -0.20270164228889387, 0.059623488573418724, -0.8138160829466067, -0.2460247087953526, 0.05949722650915868, 0.049595638707087615, -0.19767542203363825, 0.3698309027262231, 0.1025038124114564, 0.26736426087604165, -0.5770180590301227]], "b1": [[0.0, 0.0, -0.003174172051062359, -0.058642588011306514, 0.0, 0.0, -0.13274817774090927, 0.0, 0.0, 0.0, 0.0, 0.0, 0.0, 0.0, 0.0, 0.0]], "W2": [[-0.16908571893825244, 0.06953422700549586, 0.304457730624792, 0.08610592259637748, -0.14048391497634602, -0.45303105489283224, 0.12694012679377245, 0.13643821217740834], [-0.48518624697997026, 0.3298064535043303, -0.06514361060051062, 0.029271832390533388, -0.7199853570034404, -0.0208603918491301, -0.4417847165656294, 0.14938961665822903], [0.11777438585397906, 0.2458147942356953, -0.5165488419135443, -0.17090187696860676, -0.07616839228273774, -0.1940310775016516, 0.608713591855398, -0.356177205812059], [0.2752073948646474, -0.4620473876972896, -0.296787419377244, -0.1765856413130043, -0.41046090032739596, 0.0015705302151879843, 0.22294393867430598, -0.3022171620648804], [-0.0708798737322066, -0.5660368884739078, 0.5775825805943903, 0.5041751159606315, 0.42258087443196585, -0.09636221983422721, 0.018134915648459822, -0.2774121491265682], [0.03885916367120028, 0.3331856611502568, 0.12117406620047892, 0.24746920001811812, 0.07605277539826784, 0.40969572148124606, -0.41946646944476723, 0.66498292611647], [0.31009484901575673, 0.04050707557719009, 0.11242115243628852, 0.2969604553538448, -0.002658623709455807, 0.04382941501502328, 0.3448437024316126, 0.07489821909504481], [-0.05335179673023525, -0.6209329880168587, -0.29078202789443647, -0.3506741718040675, -0.05680931085887008, 0.4837198738890758, -0.3680448508457759, -0.20411481072504462], [-0.09381774688133225, -0.18838417431534124, 0.18908847896796308, 0.06284730304133755, -0.3091429328691759, 0.4896804317160106, -0.06125807077320949, 0.18012841467239268], [0.07401541896926866, 0.19934243774590762, 0.118865420413631, -0.7102119183040481, -0.00510796708167131, -0.23319791095495107, -0.14686014190794439, -0.34832982594368583], [-0.08207771169177426, -0.21667468622004976, -0.10995023269633715, -0.048190001138934194, -0.21413834550521524, 0.25424797412180566, -0.49225098252481114, -0.20028209667657945], [-0.15562993536882275, -0.012553192678938164, 0.34655287233844917, -0.15778284338737292, -0.34704863955959264, -0.0492356294725265, 0.26652394108734123, 0.26146244049989376], [-0.6617124599473593, -0.015170187436061848, 0.33740977688882867, 0.4397685223622488, -0.053323740454259, 0.5144980508576514, 0.7645542739725937, -0.37705068765318006], [-0.9119892196476501, -0.30075221753089104, 0.19926872159743456, 0.08570873580864641, 0.05671100938513718, 0.09059086862577304, -0.6227380423901052, 0.3670321213838396], [-0.08053091163852366, 0.4797848691996532, -0.612087428493409, 0.2153049421048431, -0.267883281559026, 0.18458785072957984, -0.17734587912654004, -0.12824506940826266], [-0.4955991202950352, -0.22595750901652847, -0.16872524164997046, 0.1312259305033365, -0.16855322929628405, 0.058896581440961104, 0.28941396961280463, -0.6363154120605649]], "b2": [[-0.17244539307313314, 0.0, 0.0, -0.10735463172612612, 0.0, -0.03228463072275907, -0.08895241689942204, 0.0]], "W3": [[-0.4950407779830418], [-0.015274822331564021], [0.2253915512081282], [-0.8937934069945584], [0.3095669002589266], [-0.6268333282211582], [-0.23437452499098219], [0.003927327134827294]], "b3": [[0.32897168647143354]], "epochs": 16, "architecture": [4, 16, 1]}