{"W1": [[0.5492617855976021, -0.18340131974783647, 0.14048158221407514, -0.14388885967678006, 0.18395967487394926, -0.47975421495705123, 0.3781464190024248, -0.3005721071266561, 0.651503683650272, 0.27205458287276824, 0.6252995458956621, 0.07041723924638049, 0.4501146174312051, 0.1563225713267364, 0.9055419172251851, -0.9342171310226627], [-0.5253185523791922, 0.4382859514837491, 0.1842592948417222, -0.46454285330005923, 0.5262206490028826, 0.6677304881444293, -0.036416817961131595, 0.818466281682584, -0.11446502482912144, -0.31210277574243606, -0.38395017438940715, -0.13974673847515495, -0.7072924924185093, 0.895260253226178, -0.38296359557943704, 0.5020200225882758], [-0.1551395472312639, 0.38205612185978877, 0.41435174339438385, 0.13674432209026782, -0.03992932333436414, -0.4168786799991567, 0.8090368208241814, -0.5119864672550185, -0.7117943640973665, 0.07998246396640718, 0.020660278346078528, -0.6131660841979356, 0.5025122731256058, 0.6397594093607705, 0.19855367580595154, 0.8292388626534419], [-0.22561164709858225, 0.33801625456534634, 0.42543324182977554, -0.41068509268501935, 0.31985605047982535, 0.32337545618843216, 0.28195113069533595, 0.07563330940787166, -0.4132521107870001, 0.2865539954465577, 0.21895714901898092, 0.17604967251530013, 0.050902737072874536, -0.028416081904129697, -0.37520814066595387, 1.124329436875888], [-0.20296237066050224, 0.22916985263171805, 0.33492999742862906, -0.9498481971121651, -0.284594358911594, 0.35525324799444197, 0.19246973864886097, 0.7847074751272104, -0.11651266889300484, 0.7643128444939504, -0.5545171847160484, -1.0825903339468588, 0.3019543547914306, 0.34606416314728516, -0.884644038505848, -0.06519497749908142], [0.49607711130083043, -0.1251253421901371, 0.0748567459285029, 0.3556482133174428, -0.9243005125722978, -0.38221879772385875, 1.4436153051066947, -0.6193856405786738, -0.5483558063953186, 0.09575610820136309, 0.05980375732517286, -0.7559859854460267, 0.0018807270875496034, -0.839901480887575, 0.3889848536721512, -0.14472004578731573], [-0.3766481052050248, 0.21018562615973022, 0.7016987313900283, -0.5614693331691363, 0.46686120682070414, 0.0922482447543763, 0.009043017713668514, -0.8365683230176609, 0.6102780832488705, -0.26589906525598117, -0.6015260023843435, 0.5507350347158216, 0.2959789241487957, 0.7482705984677701, -0.2474635279520451, -0.05664049939346562]], "b1": [[0.0, -0.002983307666608058, -0.0017070980872739279, 0.0, -0.06092240802193349, -0.08049063935351392, -0.0006799496795811845, -0.030199479814323513, 0.0, -0.0007454218504649024, 0.02339475208242295, 0.0, 0.006304885422685836, 0.0029257829704589003, -0.010987406541959765, 0.046826321709808244]], "W2": [[-0.06446598750784202, 0.08023490516274832, 0.569727844709927, -0.344636370016885, 0.47301456787399787, -0.03269455200734903, -0.528017128487153, -0.2984213157593765], [0.3964058906921317, 0.14570234295715578, 0.0322353369147315, -0.12361860084506587, -0.3306498452931632, -0.6425568057596575, 0.09270905975607509, -0.0024992921508150585], [0.24598955094490604, 0.29015392635520404, 0.4535531550283683, -0.8038228958950263, -0.31513000962835963, -0.23192778993558058, -0.5935100069454304, -0.3212941699896831], [0.0694552223953978, 0.3259229388343368, -0.3994139593349066, 0.18121936666522803, -0.43528326938652157, 0.40525281604516755, -0.06670616591034056, 0.1876128324600965], [-0.26976712351876236, 0.2559612566652147, 0.147300692987179, -0.612252832763291, -0.33517707060905555, 0.49433880840531613, -0.715768261341017, 0.03654775492197869], [0.3474018267097803, -0.40515399950134545, 0.5566890950799759, 0.12057443608728065, -0.1891040412602597, -0.019036154478865492, -0.17339463948594203, 0.1387894305607994], [0.18435173754403159, -0.18818665345994234, -0.6677753768760473, -0.6045628715761826, -0.20032684522497432, -0.47307888945606036, -0.9907144380271276, -0.3316772692831578], [0.11208435881038448, -0.16286908954617796, -0.1991012152404315, -0.05179725823722705, 0.07849480261265886, -0.09522571422105959, 0.0896473857621362, -0.011034406378738596], [-0.14567048748593345, 0.3242246716811534, -0.3574776489600765, 0.3153160301358418, 0.4348697445786425, -0.26552292238385633, -0.40879496959415224, 0.5905844996317494], [-0.04296801172428859, -0.1645626195823482, -0.30901852841523364, -0.31114134318499154, 0.22999753113707472, 0.17102690631275813, -0.1875050019479503, -0.586981500118303], [0.11628269734599263, -0.1007375849357841, 0.43709172249136813, 0.6561656235200484, -0.5261785365010501, 0.23147518663664934, -0.2802954131547252, 0.11494968846543384], [-0.0719817333837884, 0.061044923188516474, -0.1877201608651832, 0.21673655337890288, -0.1872681508305399, -0.4323897517300631, -0.0957447661025559, -0.37009393315029615], [-0.7600293397915592, 0.07913437292222779, -0.21543210606513505, 0.16052684242057244, 0.24594316618248901, -0.10910169888110373, 0.07243021716984867, 0.09655844588998501], [-0.23691654241444263, -0.3094769327738347, 0.5123949481738288, 0.22941286178666284, -0.01184272603969272, -0.02667036553651258, -0.08008684914551632, -0.1838056482045515], [-0.03948746194694293, 0.203376065824137, -0.06343449596897507, 0.1511741239069797, -0.820054452045308, 0.06734601521961242, -0.054656939121131315, -0.08531324161794299], [0.532746911176678, -0.11685681676094448, -0.3154300598535308, 0.06606597792802482, 0.11267669367316373, -0.3959589104698299, 0.11383184701054416, -0.18098913802331884]], "b2": [[-0.008502504248444108, 0.0, 0.0, 0.0, 0.0, 0.0, 0.0, 0.0]], "W3": [[0.4499137297341892, -1.0125156105976423], [-0.6185672801144113, -0.7489333853379675], [-0.5734235340064214, 0.3464735716040176], [-0.07793129405860644, -0.06981429640398895], [-0.4160577518188012, 0.13363119374333082], [0.0027703980897338817, 0.3305022554238619], [-0.08747617970897759, 0.5296033737080814], [-0.06638711253990989, -0.3667641374553578]], "b3": [[0.5042600006596607, 0.31313225470526174]], "epochs": 200, "architecture": [7, 16, 2]}