{"W1": [[0.5736865667027684, 0.7458811142779912, -0.9786721873680911, 0.46048591337190903, 0.6267468307520092, -0.03518264051498275, -0.5691498140455872, 0.9028760457452722, -0.39249672486279313, 0.5146242997696515, -0.824087385068155, -1.6055560276263483, -1.3002199124128315, 0.9555870766933428, -0.19117337051789035, -0.9601515453635245], [-0.08852188963027233, -1.2736146974496652, 0.7378739127725926, -0.973978751439827, 0.9950745718432478, 0.8101699657868887, -0.6556308692306406, 0.028814964402337963, 1.1902749119608216, 0.2613919247956092, 0.4396289910197362, 0.05808656463893725, 0.08989968026843258, 0.7313735477096165, -0.07043341027416938, 0.8398736263954981], [1.3391709387647983, -0.667735359799409, -0.9573822067808776, -0.004035328621237667, 0.07235803351441947, -1.1606653004424035, 0.3573443471202939, 0.48211104109349723, -1.6113968079303105, 0.2216127143827735, 1.0986258688120782, -0.8172015916365918, 0.6087378046663453, -0.5975789870263926, 0.0034058456112432034, 0.7243350309262725], [0.07122786600050622, -0.11100930797457041, 0.6583225406221306, 1.8510403298349098, -0.576325019342676, 1.5551095635184475, 0.19575123739086345, -1.0842231016959631, 0.05975861894240324, 0.07938332097689609, -0.8992975846982166, 0.06649400929124061, 0.19096918557551743, -0.20254462222908415, -0.2499459189503121, 0.6181056520732979]], "b1": [[-0.01290546551599701, -0.0029781346183172753, 0.0, 0.004158107291273507, -0.025654936708112936, 0.0, 0.0, 0.00735101956565647, 0.0, -0.0014364568017159601, -0.0005440195371362924, 0.0, -0.031606637977186575, -0.010291224312662163, 0.0, 0.00932840618999964]], "W2": [[-0.016094943231648413, 0.18782889017286108, -0.41526647349991613, 0.6290828384548972, -0.022849020183919905, -0.00048201331655809885, -0.32158085719455404, 0.10717226882926736, 1.0815737677741781, 0.01002357724511839, 0.5589077660488329, 0.23337148418567477, 0.3775629189396076, 0.11530761462099494, 0.0784100091615703, -0.40182423839574544], [-0.46446193723791035, -0.07700898659220554, -0.01963859255637953, -0.3176371775548344, 0.05554444328021301, -0.1598499273814014, 0.14928032385483736, -0.3648477173984992, 0.6447236451452509, -0.28520951170019077, -0.36355377850537884, 0.015790764770092856, -0.075686748541074, -0.44456486009370955, -0.016264668085286992, -0.29359142473214445], [0.40142965104374806, 0.4286059993080234, 0.1668225067137143, -0.24323065763305407, 0.4228446726491681, 0.19235601137829006, -0.08764140287215588, -0.04567956414473291, -0.033346446909692413, 0.07660800780113636, -0.5246384826784464, -0.30964282435582735, -0.03471156323486351, -0.10656511853933316, -0.23940173207656282, 0.44651601974093796], [0.07804277584290785, -0.5208108209355278, -0.5197972855619758, 0.16019377577004001, 0.0009445480178555764, 0.21000489190743019, 0.6494122423401695, 0.6425852457708124, 0.27514591182078535, -0.03639527569493469, 0.048313656077677195, 0.32271726308231696, 0.12549856924294187, -0.3752161029682721, 0.18107633198996365, -0.7032209736695211], [-0.22374048938093294, -0.41218281650909755, 0.10266204130283992, -0.1987731668321082, 0.31694840561730103, -0.47205469803285793, -0.3536959337585327, 0.6021846833961031, 0.3846740206998771, -0.2182437872005264, 0.710698150837717, 0.04278205449674939, 0.047523451637509144, -0.2485515745056541, -0.3445085147212449, -0.6314026812771474], [-0.6780785624222008, 0.4526304244180176, -0.18596030427328708, -0.12080388443441882, -0.32919786797888234, -0.20377436810518929, 0.2890984726697474, -0.042573046605735736, -0.26974192983093503, -0.5097813589583928, 0.35813017076808884, -0.42314522108979696, -0.2255978452272016, 0.2353599094180571, -0.013470781632364174, 0.06157011254182866], [-0.20638375711916657, -0.18588523916566624, 0.07900294219859695, -0.6889334570375758, 0.27818994407500197, 0.08695287710449742, 0.16219787600789284, 0.009587601864132662, -0.10994367761151887, 0.17037481036479363, -0.014504038818264136, -0.037723118315357344, -0.055912549243293065, 0.11959142109670834, 0.25286781397866526, 0.3140202287920572], [0.02389240841424322, 0.809634684885359, -0.30262492125589163, -0.038234087064524976, 0.5165783084395841, -0.02717197645951841, -0.43318785139677013, -0.35069821559209974, 0.17097392795776203, 0.3436061831756361, -0.1791830179254948, 0.8246447416920692, -0.07225498657322449, 0.055931791839992175, 0.24527905842056597, 0.07049457283974433], [-0.17080595915306904, -0.07689177479743825, -0.3836390854431938, -0.15197626858716973, -0.14836900973432027, -0.5772816004784292, -0.17321585203946802, 0.10662047735993377, -0.19850093523867413, 0.036910112464287055, -0.6653466660742202, -0.09918679973288509, 0.19526916135793365, 0.3955978141185122, -0.5704245376075576, -0.18482125539214284], [-0.23703787237966012, 0.04744811351651534, -0.807371655117834, 0.2722441464376458, -0.5064432980723631, 0.2483807547621415, -0.06723065576795648, -0.12606956533011493, 0.4745453063162087, -0.4448311797379465, 0.17182270163420849, 0.11082503574258483, 0.5127448544271302, 0.295193350520275, 0.1174036268714746, -0.26916858561077267], [0.4370188914326272, -0.059956288886798006, -0.10753182038101332, -0.017725952350961062, -0.6881776339774642, 0.15600280228939203, -0.11077152177804765, -0.2742921854528318, -0.07989604391553409, -0.23359783169478407, -0.1840240003147071, 0.291535131858304, -0.6142671310995536, -0.15115877026759392, -0.5382811702988307, -0.507093742905191], [-0.6072426321492744, -0.001371846948090132, -0.2138459176416119, -0.09163804734460555, 0.09966719307213648, -0.44621682026680326, -0.19215520146818205, 0.24837659081908794, -0.3072163659038792, 0.1309477585288619, -0.44571627245901024, -0.28171824586000754, 0.5425602391654198, 0.4100546417569667, -0.19301958767873223, -0.012857847306101183], [-0.004657065796976721, -0.004052305352670373, 0.012603975464478936, -0.21007880709479043, 0.11783321749957751, 0.1433231380331219, -0.07093544764145422, 0.26570273857333127, 0.2882515271252583, -0.31359581574723594, 1.0572885681517679, -0.08553819052522316, -0.152054592602408, -0.3278904226791121, 0.0409899440653989, -0.2814530183518905], [-0.2649412304246723, 0.18524545681761045, 0.24598918843123369, -0.20449605069943738, -0.5607443698375975, -0.25150941849192904, -0.7831116745276557, 0.014671975355584205, 0.26345596622621553, 0.48657880337037795, 0.6861565404413288, -0.3092812048582927, 0.2441884185460395, -0.02299180959941203, -0.5192976568651108, 0.23994496574940738], [0.44517442642355903, -0.5892750489091884, -0.13973592344774619, -0.2183967980334835, 0.13100797303628234, 0.16628640142783668, 0.11664792127876085, 0.1686346627696827, 0.019992753814751345, 0.1274355519197236, 0.21861773198767256, -0.4579117891133263, -0.0736134552208227, 0.4788015786656645, 0.6248251393543949, -0.4166879851561654], [-0.1424506509765268, 0.046084582979436454, -0.3238394367391498, -0.17641597507491902, 0.2414953243507, 0.4456217393691316, -0.32640472044977814, -0.45032746233791726, -0.21128791015507378, -0.10429574191577662, 0.07519791142677276, -0.43888012672302545, -0.3351232167127677, 0.10913028387477659, -0.47242931286829687, 0.26363960021037375]], "b2": [[-0.004883676905248542, 0.014220777623289698, 0.0, -0.0013865073168906476, 0.0, 0.008561176959558969, 0.0, -0.0007943382178669885, 0.0009560407332644189, 0.00020104610239866748, -0.02325957222794868, -0.010582684234065338, -0.0007320948491747794, 0.0, 0.0, 0.0]], "W3": [[-0.30433431993551213], [0.7437106681678132], [-0.05420085937338848], [-0.05107858730468825], [0.006065392193375524], [0.31888683188286104], [-0.5239295847125067], [0.10083378744905262], [0.04387160114508181], [-0.026538596996074665], [-1.221388268172365], [-0.5572904080810395], [0.09035461664663154], [0.2806957691512182], [0.47008417069314423], [0.1311720279732568]], "b3": [[0.019080728304083232]], "epochs": 20}