{"W1": [[-0.34362826319933637, 1.0999416425382282, -0.8694650647770353, 0.14643615278834862, 0.18016279943950447, 1.278482864835054, -0.2316540391156757, -0.1937045176908148, 0.7635209300216617, 0.023832247582662617, -0.06584932601125923, -0.7344382938241125, -0.16568694166877837, -0.7024809018430126, 0.25879908155242426, 0.414900140422245], [-0.2133081185420834, 1.1040182451422929, -0.33439182249589655, 0.9460864620546943, -0.10279344274907862, -1.3142160939939584, -0.8823137793072341, 0.7233337548901841, 0.45079146192972985, -1.1953299311841623, -0.02957650959973706, 0.9364873758022525, -0.361761846012212, 1.028985464285923, 0.26105232941145784, 0.1500675797234755], [-0.3217022061237667, -1.309524255771191, -0.7310546168021613, 0.06599855735085687, 0.9776310002338069, -0.022165566941156945, -0.90377759480774, -0.44234225657297527, 0.5396227529283624, 0.10127448468998197, -0.17966407535708012, 1.3167062977685409, -0.16269586986879087, -0.37259438282022855, 1.1830770191398938, -1.7234639172312514], [-0.12745095836802, -1.294457316896051, -0.41530538888358814, -1.3812123670936558, -0.17319958144767506, -0.12324058518606365, -0.5279107025523193, -1.0044476254815549, -0.333784714833985, -0.14851515051992958, -0.08319725416501778, 0.0033122986817306632, 0.02571327317165912, -0.3733853821246279, -0.3489084344503719, -0.06583066922097788]], "b1": [[-0.09071305847657025, 0.0, -0.09274439187550206, 0.0, -0.0965938195338491, 0.0, 0.0, 0.0, 0.0, -0.13443202645141558, 0.0, -0.14464975768582297, -0.04511920006570996, 0.0, -0.061463126558671054, 0.0]], "W2": [[-0.5763048751734314, 0.6359139824454774, -0.1686510092855813, -0.4195029047501252, -0.07136391781707291, -0.6451151932800374, 0.7924407922324561, 0.09308056157111788], [0.017068016438214012, -0.2709261945388636, 0.13186719799428892, 0.1862443411425076, 0.28352493929719375, -0.1812263750340489, -0.10893835678006539, -0.14277510809943106], [0.09418317778446653, -0.16664657695159976, -0.05927133944099716, 0.4393053193282961, -0.23227786794821742, -0.3756132163446343, 0.22654396373490582, 0.2830266058079033], [-0.3532211586401061, 0.12393985624420749, 0.6951466883892999, -0.010762763195539508, -0.48824119430936946, 0.7496409665464895, -0.6088191567830493, 0.4497439926488258], [-0.0722788920401045, 0.02554342733707854, -0.1525579146193079, 0.6017428632896726, -0.057694018894040335, 0.13304004102563782, -0.0445754294060105, 0.12008208827243758], [0.22298403423064922, -0.3586191580046166, 0.1334166712895351, -0.22717102656871224, -0.19481466319658763, -0.1849864978249639, -0.24735570208323127, -0.07027945189805429], [-0.2814511612546133, -0.43005451416068663, 0.3764243148176907, 0.030567003343443033, -0.387174551692108, -0.21276404746389846, -0.2637556747100426, -0.2558256320084586], [-0.09233097117508092, -0.2470419501665991, 0.6060351757698477, -0.13094589104087614, -0.5816361370374588, 0.1664710603958775, 0.5013211104767528, 0.03352461281850576], [0.07214597744040023, -0.2083019165120826, 0.5114381158694133, -0.1374132737762715, -0.430242762137047, 0.08834199727331637, 0.021273712035715375, 0.36415910094979465], [-0.4381335717612179, 0.3154947880494896, -0.41912551175070684, 0.07493176899893181, 0.032270992122480024, 0.35561461847930714, -0.09955413842530056, -0.40176649925253527], [0.33650942714343146, 0.014127281868023395, -0.6435667315492386, -0.3166068854783268, -0.09578003965144152, 0.2493577603282149, 0.12424426979258227, 0.9357420006536615], [-0.8393599029041623, -0.3159816661813406, -0.293340968451933, -0.42483047323211276, -0.16823862273753945, 0.28935429853169464, 0.22143511436265179, -0.7913615958475518], [0.13328144223535626, 0.4168343860274702, -0.3164695312174293, -0.1953035577034077, -0.24167024366326928, -0.1027675929834198, -0.27196676139774745, -0.23458253858630407], [-0.4494073239146029, -0.9337995442948076, 0.613837089875024, 0.4042804490325365, -0.2077322057207787, -0.1541372728745013, -0.14035436907293666, 0.06266414951679715], [-0.1858134346258747, 0.017340766584603075, 0.08472880165226998, -0.32362484801037733, -0.19093981689431988, -0.05767114777028225, 0.3037342618158853, 0.23765392921063228], [0.04390031618399383, 0.35838993025680566, -0.3311936502120661, -0.2892218516727682, -0.08589761455295047, 0.023604936129214597, 0.12712574265455606, -0.18370564030139677]], "b2": [[-0.1484601439307612, 0.04193999635642915, -0.1351168832461244, 0.0, -0.03275600347824804, -0.07094617738168138, -0.029677600797286333, -0.07761032418891317]], "W3": [[0.7810629248855018, 1.15497914772256], [0.4524604166596189, -0.7201732498425745], [-0.4683968030569173, -0.5210437368809647], [0.7103687424857229, -0.6756053351349985], [0.37231443980135154, -0.24709094556090377], [0.8748324137414698, 0.30730487982080207], [-0.395242633060224, 0.05020073827979765], [0.6307448132310457, 0.5595380809999667]], "b3": [[0.013938704261064932, 0.0410742930200173]], "epochs": 170, "architecture": [4, 16, 2]}