{"W1": [[-0.34362826319933637, -83093782816.35168, -0.8694650647770353, -190691248302.7774, -1.4057542866372804e+59, -9.993464037946346e+59, -0.2316540391156757, -0.1937045176908148, -5.968182418601852e+59, -239582984896.09192, -0.06584932601125923, -0.7344382938241125, -0.16568694166877837, -0.7024809018430126, -20951820816.324642, -3.243132737005504e+59], [-0.2133081185420834, 1.1040182451422929, -0.33439182249589655, 0.9460864620546943, -0.10279344274907862, -1.3142160939939584, -0.8823137793072341, 0.7233337548901841, 0.45079146192972985, -1.1953299311841623, -0.02957650959973706, 0.9364873758022525, -0.361761846012212, 1.028985464285923, 0.26105232941145784, 0.1500675797234755], [-0.3217022061237667, -1.309524255771191, -0.7310546168021613, 0.06599855735085687, 0.9776310002338069, -0.022165566941156945, -0.90377759480774, -0.44234225657297527, 0.5396227529283624, 0.10127448468998197, -0.17966407535708012, 1.3167062977685409, -0.16269586986879087, -0.37259438282022855, 1.1830770191398938, -1.7234639172312514], [-0.12745095836802, -1.294457316896051, -0.41530538888358814, -1.3812123670936558, -0.17319958144767506, -0.12324058518606365, -0.5279107025523193, -1.0044476254815549, -0.333784714833985, -0.14851515051992958, -0.08319725416501778, 0.0033122986817306632, 0.02571327317165912, -0.3733853821246279, -0.3489084344503719, -0.06583066922097788]], "b1": [[-0.09071305847657025, -276979276.0581721, -0.09274439187550206, -635637494.3430794, -4.685847622124268e+56, -3.331154679315448e+57, 0.0, 0.0, -1.9893941395339506e+57, -798609949.7881513, 0.0, -0.14464975768582297, -0.04511920006570996, 0.0, -69839402.78340794, -1.0810442456685013e+57]], "W2": [[-0.5763048751734314, 0.6359139824454774, -0.1686510092855813, -0.4195029047501252, -0.07136391781707291, -0.6451151932800374, 0.7924407922324561, 0.09308056157111788], [515474181948.37366, -0.2709261945388636, -309125489369.2024, 0.1862443411425076, 0.28352493929719375, -0.1812263750340489, -0.10893835678006539, 416269491561.1904], [0.09418317778446653, -0.16664657695159976, -0.05927133944099716, 0.4393053193282961, -0.23227786794821742, -0.3756132163446343, 0.22654396373490582, 0.2830266058079033], [68625509887.65444, 0.12393985624420749, -41154135492.895485, -0.010762763195539508, -0.48824119430936946, 0.7496409665464895, -0.6088191567830493, 55418306308.71833], [-6.986516207561802e+58, 0.02554342733707854, -50542119103.38706, -3.2611761661524545e+47, -0.057694018894040335, -4.0161995403935956e+47, -0.0445754294060105, -2.594317598846546e+58], [-5.184907533133008e+58, -0.3586191580046166, -359302372015.2156, -2.4202186566827784e+47, -0.19481466319658763, -2.9805446137824444e+47, -0.24735570208323127, -1.925322501512282e+58], [-0.2814511612546133, -0.43005451416068663, 0.3764243148176907, 0.030567003343443033, -0.387174551692108, -0.21276404746389846, -0.2637556747100426, -0.2558256320084586], [-0.09233097117508092, -0.2470419501665991, 0.6060351757698477, -0.13094589104087614, -0.5816361370374588, 0.1664710603958775, 0.5013211104767528, 0.03352461281850576], [-3.5790122352737455e+58, -0.2083019165120826, -214578457627.5008, -1.6706165209220997e+47, -0.430242762137047, -2.0573955412587254e+47, 0.021273712035715375, -1.3290020594825416e+58], [10958691258.82938, 0.3154947880494896, -6571834084.454605, 0.07493176899893181, 0.032270992122480024, 0.35561461847930714, -0.09955413842530056, 8849655323.61588], [0.33650942714343146, 0.014127281868023395, -0.6435667315492386, -0.3166068854783268, -0.09578003965144152, 0.2493577603282149, 0.12424426979258227, 0.9357420006536615], [-0.8393599029041623, -0.3159816661813406, -0.293340968451933, -0.42483047323211276, -0.16823862273753945, 0.28935429853169464, 0.22143511436265179, -0.7913615958475518], [0.13328144223535626, 0.4168343860274702, -0.3164695312174293, -0.1953035577034077, -0.24167024366326928, -0.1027675929834198, -0.27196676139774745, -0.23458253858630407], [-0.4494073239146029, -0.9337995442948076, 0.613837089875024, 0.4042804490325365, -0.2077322057207787, -0.1541372728745013, -0.14035436907293666, 0.06266414951679715], [121187007425.96477, 0.017340766584603075, -72674819200.78674, -0.32362484801037733, -0.19093981689431988, -0.05767114777028225, 0.3037342618158853, 97864171925.29686], [-5.662510963893961e+58, 0.35838993025680566, -116602739625.19676, -2.6431550786414744e+47, -0.08589761455295047, -3.2550949937037637e+47, 0.12712574265455606, -2.1026719771138056e+58]], "b2": [[-4.277237427895888e+45, 1.2716678594120114e+32, -936793606.3122456, -1.9965350887945979e+34, -0.03275600347824804, -2.4587703630426015e+34, -0.029677600797286333, -1.5882754729209975e+45]], "W3": [[-3.993159867596106e+59, -1.0566753382863927e+48], [1.1787494204310663e+31, 3.119222580333891e+19], [392829676853.4664, -2.6723747962437603], [-5.892191064348603e+46, -1.5591995293483632e+35], [0.37231443980135154, -0.24709094556090377], [-2.7610497602629105e+46, -7.306327034704319e+34], [-0.395242633060224, 0.05020073827979765], [-3.224663205292826e+59, -8.533147172401486e+47]], "b3": [[-2.7824559551919642e+34, -7.362972395817044e+22]], "epochs": 173, "architecture": [4, 16, 2]}