{"W1": [[0.3522395358201003, -0.659458524340298, 0.5612024126933515, 0.797172768389493, 0.41533755600255307, 0.4629344149632186, 0.02011294335530954, -0.20532017251469792, -0.10609402062164047, -0.14615762587281117, 0.21184456635581236, -0.32052130134908274, 1.0446520479842571, -0.2513649983904823, 0.4878501059967095, -1.1860210124637336, 0.22508247373917745, 1.1069795735504577, -1.2424816936735692, -0.13777088547698937, 0.14910423064372605, 0.19541677930601487, -0.3843062798280823, 1.3210604727936703, -0.11513718489175852, 0.6393559118148455, 0.2809932978485533, 0.7258058247481388, -1.420393312728504, -0.9746984052512149, -1.1382499155739143, 0.1514254731489896], [0.4396525897158152, -0.228130880786052, 0.12744046846378485, -0.49767090519392676, -0.6083525428582813, -0.9582924052467886, 0.21534723686596124, -1.194127420827635, 1.0608885094279044, 1.574137610234826, -0.03289968658282205, 0.2822664985491676, 0.7811722465850457, -0.2565852036670569, 0.1451110898118809, 0.6578423886451521, -0.52678425249582, -0.6613047751548234, 1.0861757801597787, 0.5763530015163563, 1.4986394320214553, 0.09592985694882546, -0.46633066262694645, -0.34677376163712714, -0.1970283260810515, 0.9456054595267339, 0.33123718940498276, -1.3138927536525786, 0.8431529523901081, 0.4273804354296699, 0.8048519033118008, -1.0954735510217937], [0.49353754610799905, -0.14707303296721302, -0.295548931016599, 0.489458367865343, 0.06757940328173147, -1.5282464576653114, 0.13043513714443344, -0.5705655639666448, -0.5231464094649687, 1.0717281169165478, -0.8670795906639549, -1.816899385561393, 0.026935556595930533, -0.23247493754786377, 0.7276897693186634, 0.4363875926747435, 0.9545816314200413, -1.217615521892551, -0.9669923064058263, 0.06344630121023427, 0.7170492539889735, 0.7865246019529437, -0.678507323614072, 0.8540164071606133, -0.8417435516510202, 0.36686163302351665, 1.0924042863730148, -0.5887577420087247, 0.49081104964497685, -1.3183897004971994, 0.009973763834735104, -0.10573857369288023], [0.2698709594064067, -0.599655641034628, 0.2619180578543102, -0.10437516641505651, 0.15536849343063605, -0.6197315977968124, -0.34703681651552165, 1.4007867318570406, 0.3924091146523897, 0.3122500566575358, 1.0545667368361293, 0.4049316729932744, 0.30322387563514563, -0.18678864189025401, 0.4273684040166428, 1.437362442416057, -0.5203286261676665, 0.058957629593329126, -0.06420446136534305, -1.2110598976440312, 0.35587765963114865, -0.6044769326507867, 0.23462685478189335, -0.051801637617237356, -0.26142865490516964, 0.44802758924456454, 1.4330386905523718, -0.7393091075260391, -0.7071412400398511, -0.049877683136359846, 0.5062758213700495, 0.0678447601434317]], "b1": [[0.009751870763683588, 0.0, 0.009134933425610982, 0.004660165516301504, -0.024760527120180068, 0.0, 0.0, -0.014454243231056565, 0.0009629120509871084, -0.0009635979954725808, 0.021606179276547732, 0.0, -0.02721524153564114, 0.0, 0.02009444854889025, 0.014669696674678892, 0.0, -0.009002156394490993, 0.0, 0.0, -0.004857698833193656, 0.0, 0.0, -0.0014445946621908085, 0.0, 0.01535911733776092, -0.0028468552188385104, 0.0, 0.0, 0.0, 0.0, -0.016996749232302107]], "W2": [[0.017483906645178144, -0.1811268291908375, -0.36704468637462556, -0.10832523901609194, -0.08823690964125531, 0.13282475463159668, 0.14081619026416212, -0.11755789473201901, -0.32381287449868973, -0.20588860818238328, -0.6818000667831776, 0.02363852350067939, -0.20198917094042937, 0.05170513384837062, 0.3017788077934737, -0.4137492302084456], [0.15881491130144235, -0.294701394385554, -0.42850282577647647, 0.40002110243727396, -0.26889390279728265, -0.5068587722111197, -0.29643996041045395, -0.06950012411407128, 0.32967863297847805, 0.09865486933044977, -0.12488923599332222, 0.395213949961771, 0.4337881284395862, 0.1925256731026222, 0.647710443285377, 0.20616813171985934], [-0.24936067916106094, -0.1091001625626698, -0.14618685457122818, -0.039767374740148395, 0.05030648649071902, 0.10914101014078133, -0.026740272110509843, -0.2018081964678323, -0.021004060032674608, 0.006773879431998903, -0.45451642695849265, -0.13140132016707376, -0.45771498981139774, 0.5336533728134115, -0.11207681846025573, 0.26658446473534114], [-0.30153956076460786, 0.017034732998659038, -0.016969235149422418, 0.11036083120399238, 0.11726644698494512, -0.32853244437602513, -0.01348760203413646, -0.10933724747595396, 0.08092081420518193, 0.06058659366067354, -0.27193142902139106, 0.06156070721206164, 0.08102319413874884, 0.3501951802748721, -0.10574908952399138, -0.15828613956348822], [-0.2369745010411725, -0.20950791493913418, -0.18040445726835955, 0.26837228404996133, 0.10779693111199287, 0.18495636877070973, 0.15865996385900355, 0.27136006577458605, 0.33021125645574173, 0.3367183287182594, -0.05582940409567286, 0.261715614085666, -0.1443652134093821, -0.25802263420493343, -0.24450556605547152, -0.03523814204340558], [-0.14967508022092282, 0.012235827908069789, -0.17757783124928772, -0.09611439920369351, 0.09218511708885865, 0.25815657895481214, 0.15098813940406172, 0.11207227396896745, 0.2776465212536625, 0.43160303337340344, -0.2638313619141533, 0.12779591645529173, -0.08048159629534322, 0.33949657966479185, 0.08650551880057292, 0.42762186767333893], [-0.15006421217189062, -0.09174247939777146, -0.40342571007548467, 0.18896710756897742, -0.03827422333559696, -0.3385265465319625, 0.058843931788998965, -0.05288355983067054, 0.30954854341283555, -0.0951778990888663, -0.18140308188549403, 0.022890595595083708, -0.12713183116935983, -0.3137177277118048, 0.1591680624043967, -0.1789529038461998], [-0.2908109440124715, -0.08709169171550807, -0.1551935213503674, 0.21046787128139416, -0.5531345336906736, 0.1328070259416887, -0.39552132099967846, -0.031135183727876634, 0.37332063461711446, -0.07293589065642145, 0.1517230954274862, -0.10085689622645615, -0.13785087480064692, -0.3732091193315739, -0.012641112937684018, 0.20273698021425923], [-0.06184823709146186, 0.15496642607486502, -0.5276281815934755, -0.05352395243582794, 0.09805091407102384, 0.07117219299282597, -0.34967158169821455, 0.05148796383664459, 0.02280315439877243, -0.48482481222481055, 0.14454209842659554, 0.299758374710198, -0.16820403251245758, -0.3560514209096947, -0.04413121065409015, -0.052375915408902046], [-0.4740743612189952, 0.05490185391283224, 0.23649764320233224, -0.06048548361029864, 0.3724534349194975, 0.05934960217941538, 0.1777766489152962, -0.045486366832994965, 0.37328357846589, 0.3825413061212649, 0.22328103031798094, 0.04812477447186289, 0.20399973034411764, 0.06921441472823205, -0.4150697165190632, -0.18069931311522291], [-0.2715321662060102, -0.2709392260699863, -0.1400369395396073, -0.0673539218644749, 0.3968438636090128, 0.13058306169332973, -0.18619809657344005, -0.1687342234043275, -0.29805759925263753, -0.048544456969687955, 0.15164659224911556, 0.3454719872081034, -0.025899439937738047, 0.21814540572516708, 0.25810800812847035, -0.4930540856047696], [-0.10156269320082445, -0.13805370557184374, -0.4241231147484923, -0.5035563572981977, -0.20965307874519473, 0.12393258605791883, 0.34378039286641693, -0.12269006452531224, 0.020229570696927244, 0.05840692358655129, -0.4631978260468122, 0.018325673453640792, -0.17835283678960484, -0.17675569886317807, 0.005024149748574231, 0.1858098305769527], [-0.5509165063360009, -0.07475163703025749, 0.2503458008442429, -0.07349816585033091, 0.6443981031646878, 0.23127969857182637, -0.08033018854223799, 0.48071837313484206, -0.5081686966172554, -0.08113247835345916, 0.10358378280131686, 0.16595482984024149, 0.17139711938527527, 0.5036565649423744, -0.3455096053894944, -0.40582767655708013], [0.1894898640052631, -0.07786812546194143, 0.0074985174392878514, -0.4509086348625955, -0.5943107937755285, -0.14158151613796807, 0.12377799565561859, 0.16866121601759976, -0.31721668239545736, -0.23079445452252403, 0.18167122965055396, 0.40313966579496135, -0.15290643086324374, 0.09696402973044448, -0.4585529233027417, 0.19157980900110239], [-0.39164190021063516, 0.157326801045432, -0.614368858301825, 0.16764675014822888, 0.3645001980123433, -0.03287206463371003, 0.19062901975868984, -0.23014852071256287, 0.24824943770943855, 0.16937726118982388, -0.07928187131312857, 0.234916194172062, -0.5503658902101731, 0.14266224621599252, 0.029871721556418363, -0.4053574661418186], [-0.11962021640451732, -0.0073482744845926725, 0.14949334632090674, 0.13346701728981442, -0.054062584464590044, 0.05493627511776216, 0.1990221291889609, -0.30844786065043983, 0.08941655303882763, 0.2617519827214849, -0.5598230463182688, -0.1358566650481886, 0.006543823073666078, 0.21187683545820182, -0.06040027120028965, 0.21700052700168584], [-0.22961521994052825, -0.024515712093010296, -0.09004127301670874, 0.3324766296401679, 0.35133034062789104, 0.35829129194095344, -0.4401121871909888, -0.30234679114486007, -0.3048523749993056, 0.15278814266883023, 0.39174898635451344, -0.012638704746215193, -0.014270533036423309, 0.17132877867673632, -0.4306166847289758, 0.16325225735930646], [-0.27089982564747395, -0.2939497525841795, 0.2741030673396892, -0.07629115318365245, -0.18686663360763736, 0.11923992522091713, -0.13822491221455124, 0.052783078842357764, -0.3861679495686793, -0.055743340966849395, 0.15940750870684026, -0.061317529125090496, -0.024132716435633035, -0.24185199652259376, 0.09112289235194491, 0.0878726994698945], [-0.1406378961910844, 0.21246202057074437, -0.09801025899585539, 0.6346857739705961, 0.1694456478776828, 0.21140903898909702, -0.02060921747950914, 0.5478075926203396, -0.1734761090981318, -0.29804674492109806, 0.00506701629527235, -0.15483126501770536, -0.21579179814824037, 0.10403938206904699, 0.12852347980372905, -0.28913045936371595], [0.036885432338482106, -0.27156586598839866, 0.2924848209156859, 0.26474754390403604, 0.15926616288629206, 0.1265586678830754, -0.30683499927213337, -0.005251941295291364, -0.19597753308316054, 0.24060967768928215, 0.07407707659498279, -0.043694366773424365, -0.1620991707597902, 0.1461065099987572, 0.049946891418515535, 0.39625028966401393], [0.05471364715558107, -0.08300927886663281, -0.6566729180790246, -0.22554708773723858, -0.07822122873805702, -0.009077601086689641, -0.10100195206922749, -0.07796963493485423, 0.08921945135785937, -0.07928503268467296, -0.1176089760490549, -0.0015127163528165992, -0.23965911949541763, 0.36495413091630763, -0.1749922843309625, 0.2857220099124783], [0.38057400511689815, 0.1540989614152454, -0.1876319744326173, -0.06258443285117425, 0.16385995051685714, -0.1027239677768798, -0.21055350215725427, 0.07351142963784522, 0.12084188873598932, 0.0821672003204512, -0.01460312456764421, -0.39654035230503343, -0.20025322549591054, 0.2130942928366905, -0.04032207157924626, 0.12456290073511482], [-0.32858318018107463, 0.15676105997513878, -0.29257890527071034, -0.19489849057237066, -0.5491616517159992, -0.05383879546273798, -0.38066322479229786, 0.008233845934467568, -0.2972514090906963, 0.06497950636867368, -0.5221018139371898, 0.2789272952367322, 0.3459937848350097, -0.10732471264393621, 0.0006425029353696061, 0.4117401609816041], [-0.025745796718743733, -0.6196080411879046, 0.3502512868005901, 0.46345980932631287, 0.18093832499438506, -0.014691800505195895, -0.01240508293980031, 0.009071855930929322, -0.013628891693505328, 0.30408774994670107, 0.04883035327248544, -0.1257023799711022, 0.2491647714751352, 0.4551698822954303, 0.00012393723671636238, -0.20105018842423508], [-0.14325953796133814, -0.19830006917128237, 0.496085053377181, -0.11486290233303609, 0.31278081910700073, -0.13623249802884466, -0.006618228653840952, 0.37052569798470153, -0.027096756670808096, -0.3658625868139828, 0.20108050782227777, 0.14243240134227156, 0.2113799226351329, 0.2694762275856928, -0.029149261956979932, 0.00524332122131326], [0.07542715738078327, 0.12840611461788737, 0.059452183450446214, -0.0137565702563043, 0.2568409588120673, -0.1587385763792146, -0.012652217052592308, -0.05246563250996578, 0.11332772458680733, -0.22132578159892435, -0.09929779045090292, 0.09827943998373714, 0.23660458188930927, -0.3407018335877545, 0.32411578845813144, -0.15694678927210337], [-0.0711867526947547, -0.3386983017614446, 0.06284751825247177, -0.33918453019157807, 0.35878225066842945, -0.551231151855721, -0.13287491020047823, 0.20091543260849684, 0.02425343624105458, -0.2082464605054984, -0.22821600709913284, -0.06138480318482773, -1.0125472887228353, -0.1912136074643073, 0.28707458102634476, -0.024419339231725883], [0.10611074524775661, -0.30417673462680905, -0.3189696665203223, -0.23626473142304985, 0.17381341960774785, -0.3375394103818494, -0.24513613708573073, -0.10839644355847984, 0.27622247295903757, 0.10346073459897771, 0.010129552822320647, -0.09300347463078723, -0.053134232720419755, 0.15598610796365273, 0.39133200792380013, 0.2360262157178596], [0.10669604893490289, -0.22347964092988062, 0.43901560270099294, -0.023130505076628765, -0.20324726536083423, 0.18220380890076385, -0.013226767450656752, -0.22248338526529332, -0.007105453806777078, -0.2182174293237696, -0.2139541550998513, 0.10159815344528088, 0.08386258744073938, 0.11477842615514361, -0.07305167179493195, 0.1059817108483503], [0.08443905156386357, -0.15810497568734838, 0.11783294858394895, -0.2717735057201299, 0.06781898460725191, 0.3900650316410855, -0.07323773989318268, -0.049943976605350736, 0.09909210820114754, -0.04861585657228015, -0.40836177143815927, -0.05823063908591785, -0.44766053148001445, -0.27672849914704095, 0.030735893946186532, 0.45604055101017127], [-0.036761686159546406, 0.00884638364911192, -0.06592662942376254, -0.05719773856466977, -0.15725094358981137, -0.17044741880098543, 0.4659341124839433, -0.20403294769537608, -0.1982013840626863, 0.3396962454092021, -0.3400269924266945, 0.16358291911253525, 0.6180237978256342, 0.24477941040350448, -0.37054247659193157, 0.2849092510773308], [0.3048809873955748, 0.10648719274881623, -0.2380500846746352, -0.021186876508475033, -0.05504275970061526, 0.37711534123330087, 0.09189528037526203, 0.14011319173765818, -0.05134042869745001, 0.0016593753468754418, -0.41075888197460325, 0.22156120599535684, -0.2564958651285415, 0.09937803146904428, -0.08818291320046084, -0.38338864752191343]], "b2": [[0.0, 0.0, 0.0, 0.004793106733793822, 0.029334205990973125, 0.0, 0.0, -0.06674169412361536, 0.0, -0.009941587230841833, 0.0, -0.0065908046634308125, 0.0, -0.0027129546639341135, 0.020017470131366424, 0.0]], "W3": [[-0.1803378364749005, 0.18465314989424764], [0.6547042424157844, 0.3724770804562955], [0.009674362855840451, -0.2283877225558988], [-0.7867392808249039, -0.10718683405985059], [0.3619665343661513, 0.2829587813467318], [-0.11536588007185665, -0.3919521225999767], [-0.027263065486869412, -0.2065950038663066], [0.017390078127912247, -0.8320685001207274], [0.6660421652598804, 0.5553705127780146], [-0.2126515929343367, -0.5259487074906919], [0.29896816183589253, -0.33044410076099434], [0.34560917435168126, -0.2935094341790863], [-0.09911097871977372, 0.6402845971640139], [0.33095428650812597, -0.19356906304421959], [-0.05328144983823388, 0.3131858656085765], [0.717437406062052, -0.033542950274547054]], "b3": [[0.05641656316587876, 0.07821296961736869]], "epochs": 20, "architecture": [4, 32, 2]}