{"W1": [[-0.12240990430486967, 0.4162258968691858, -0.5623541714191808, -0.5425953921221355, 0.20959055251983139, -0.4864862551820476, -0.3694273040938822, -0.16264317856539573, 0.2894796613368078, 0.604420545807411, 0.2224368444180572, 0.15850871702357192, 0.09204505504242055, -0.47221418827361017, -0.1499001256308511, -1.234147182194447, -0.8069262604435097, -0.7704232337995075, -0.6746339213788093, -0.3354671868307379, -0.41154788681657895, 0.493121747050509, -0.09597134804999087, -0.19901421459949678, -0.10336879372544049, -0.09869052971077238, 0.6423508200787137, -0.4892162676517404, 0.3128159390784563, -0.6879775673346776, -0.6630360802913463, 0.4992679405875632], [0.7919035380219722, -0.519020073373032, 0.360114774393458, 0.3575779441165628, 0.1370249709889841, 1.4414631718838837, -1.2785409754518555, 0.5373748588540189, -0.19394714869080715, -0.572358441679663, -0.6392428997946105, 0.01090030373399354, 0.7316570592471644, -0.5283158725930528, 0.1805343612650606, -0.0010916647178018614, 0.07166137359588311, 0.4130115701375366, 0.1522292074107819, -1.0268869750295628, 0.7691927068577987, -0.9834475238057255, -0.756364675947648, -0.0850576073644565, -0.02094230406241323, -0.3785254932806302, 0.20390951883157157, -0.14924509054356835, 0.7992820633130105, 0.41263770826453283, 0.7717524829824883, -0.006089056743373692], [1.0860637891302463, 0.02872610219235748, -0.4207184340415601, -0.9851485269474568, 0.7344605939539862, 1.2281359714469902, 1.4480837016943775, -0.22821173334257075, -0.3850747540445695, -0.23918081954072856, 0.1924539769418986, 0.16944673066125426, 1.097268012981145, 0.6910306311539459, 0.18132296594181038, -0.6928571383020038, 0.49502300160273044, 0.44763838450010623, 0.20209022447504033, 0.7363551936884764, 0.7254206964818891, 0.03424958486228308, -0.6207341395077572, 0.6173217481627381, -0.2981060534460137, -1.4184673613578753, -0.5856632392227696, -0.615758230349594, -0.4392486642874473, 0.052255646538646734, -1.3326038768579997, 0.16798283207058526], [0.17659024524965658, -1.2209949710428596, 0.13528241517112893, 0.016161280772396324, 0.26764704230524416, 0.5586049171801047, 0.7375655437711358, 0.31367554049407725, 0.036023962724341274, -0.13138438132747407, 0.5593479712841677, 0.0542002716590072, 0.5832209041647515, -0.7536301754758898, 0.7871689638800233, 0.04238561597711148, 0.6684330406505864, -0.5129995000443617, -0.1447092067899895, 0.8924776984661783, -0.5514607896215957, -0.8148021849540457, -0.5848609068755344, 0.3107052287865001, -0.03168704239004333, -0.41793767587910224, -0.3736583923948287, 0.13316278218806263, 0.3365540535449815, 0.05982926299257444, -0.3118335775712449, -0.8916019154053632], [-1.168903991926744, 0.0004068526409917716, -0.771413408395121, 0.48706423293642515, -0.09692237412741474, -0.21143890419375344, 0.8707776394108958, -0.4131506531275426, 0.3919622390248826, 0.6661597065736204, 0.9903633966983053, 0.26773496942295855, 0.043057932790771546, -0.8065042081651373, -0.6175674090222952, 0.09401187269415152, 0.3510338566054063, -0.5610240630427503, 0.0779057952376472, 0.5048788706013196, 1.0551742575084393, 0.23763168984842542, 0.2837702126196799, -0.3572392210661968, 0.10339956513152639, -0.011680546318524688, -0.5858952474770937, 0.544112059310895, 0.14737078881603047, -0.5986808687541609, 0.7403202030054057, 0.8291629435612542]], "b1": [[-0.003220063101835752, 0.0, 0.0, 0.0, 0.014405341554315523, 0.10130503440165337, 0.02529700985860382, 0.0, -0.057017043469662736, -0.0102570892751404, 0.10294704335041972, 0.004607079068720803, 0.10026615050083072, 0.0, 0.0, 0.0, 0.06485831735258785, 0.0037092757521711437, -0.031270990281708134, 0.053153216562417754, 0.09671105067546905, 0.0, 0.0, -0.0006675133951634356, 0.0, 0.0, 0.0, 0.0, 0.0632796810758115, 0.0, -0.0012301884636353292, -0.006608927354425914]], "W2": [[0.06336960804504609, 0.3529476344145953, -0.0037372248759841784, -0.16412203886374513, 0.0849243805218023, 0.12963931849821422, 0.3390899263181513, 0.30071331889624986, 0.05766455210506325, 0.151950631173367, -0.321282233464505, 0.22043009436851665, 0.2479565858716392, -0.01568331843256077, -0.07470164571792859, -0.05686690558629184], [0.1560791882829728, 0.1058658030292406, 0.44295806772001917, -0.17784022723977322, -0.32452417881847034, -0.006798979737309351, 0.13938598445804878, 0.7771911767493328, -0.22490913893656705, 0.14090318651203065, -0.018579823457963586, -0.11433084312282223, -0.1793030522303816, -0.3907328128785086, 0.0672756019933058, 0.2834778388572733], [0.33555230036274447, -0.017828292022559627, -0.04389072073887584, 0.18169849119169226, -0.23307538279690876, -0.40458473678639395, 0.5321792229368218, -0.1419178442281074, 0.25742316176725183, 0.5031213004297642, -0.15999601437557034, -0.37550262419867336, 0.4629180956366619, 0.11129525963964206, -0.003863627238150547, -0.11949069688671755], [-0.4570593999220461, 0.3221946383655614, -0.1679952727816557, -0.3113682038640299, -0.051366524747736717, -0.0351136205891631, -0.014088748303609018, -0.050775493072091074, -0.2718196409569353, -0.03577678701984569, 0.15472447494987682, -0.1312661115133096, -0.007243387243433493, -0.1265707823965486, 0.32068077650138277, -0.10688489341619817], [-0.18626180159761044, 0.08537531800596408, -0.04224038796435952, 0.3774299131230296, 0.15849822510377806, 0.00794829331856612, 0.2899295876468356, -0.1426765630058366, 0.046097110070591495, -0.1140422381223218, -0.31131939431315125, -0.03350323019899628, -0.5308944787995081, 0.5343261289508168, -0.03097640833862476, -0.04066271302509902], [0.1922373522680307, -0.75955887700521, -0.8644693949648911, -0.03161516246419277, 0.3213013918539281, -0.054281368089415374, -0.30415864449007496, -0.27861927380696616, 0.7303885113020903, 0.07508087819501902, -0.21414123708415353, -0.2554459442130248, -0.06825147581237467, 0.3665820444731922, 0.3521386334964947, 0.1447225754556521], [0.3507399234148525, 0.07209286629396158, -0.5409167808880647, 0.04797643445140888, 0.13047396379949508, -0.03892499315315741, 0.3099238559694415, 0.11401597390325682, 0.20340257596992103, 0.09538944869805228, 0.4945036336251817, 0.2511875582010257, 0.1884219474622287, 0.3986083969367863, -0.2116409827042826, -0.028645724441964004], [-0.2989309239568222, 0.46001575277707524, 0.21842909138078434, -0.024302123232608906, -0.0016473468141050553, -0.347423062932036, 0.03177034743416434, 0.3615464419762836, -0.14856317650508977, 0.3346768716883437, 0.004533039406130029, 0.04278818303273552, 0.25434518975543857, 0.07863190098140176, 0.013616977919003695, 0.2453727881816385], [0.11235188398996247, 0.5062775716342929, 0.04252323990456376, -0.12820467461980203, -0.19998006907998542, 0.28488904667701276, -0.2122217149666597, -0.15178370769081206, -0.5159621946758121, 0.07157928254910745, -0.11469707029009452, 0.06387695794516436, 0.270134986515158, 0.0008418917083832125, -0.26762250912350866, -0.026997175132686145], [-0.05044380011177676, 0.020747537359738395, -0.0401795186530173, 0.15656880396633616, 0.1871194543869275, -0.06969355037038671, -0.07283092214706062, 0.04396954664949002, 0.3844911323844281, 0.28134702996813266, 0.17286987773167098, 0.10140909172323005, -0.0503201990885449, -0.4194728256076416, 0.019778112386816746, 0.18772067490187747], [0.5348837894070184, -0.04065394838084246, 0.332488424247287, 0.1823119980813643, -0.01749780949051238, 0.2791234955211647, -0.09391596776604245, -0.532764309898435, -0.08705714868085163, -0.203850000697477, 0.1722044357794676, 0.19368326924343054, -0.48180908150057344, 0.5754330314399421, 0.2938829564796803, -0.27366389500114874], [0.4383565707288608, 0.6016579129773446, 0.17137617093923094, 0.1542515182841227, 0.19623630179345875, -0.0008703940724700337, -0.22218093905214908, 0.0680926416992392, -0.3034597319565228, -0.26121278878080345, 0.14842574915899825, 0.11948585408056751, 0.18098541506147114, 0.2906301414836418, -0.23802223180020676, -0.26303645130522285], [0.24518993653451077, -0.017830264903851277, 0.1479741080241782, -0.030385132523317575, -0.1330951254680029, -0.0955512041840082, 0.060945216593556964, 0.0776206214226228, 0.49612748255606254, 0.1857807804708911, 0.4402906600166232, -0.054127154693413844, -0.02802106759959931, 0.5496977013369909, 0.4044302285669825, -0.1679326226107661], [0.06431153713756711, -0.4043508852776433, -0.06156606715699678, -0.2312309555811419, -0.15750108476806776, 0.28357052646418, 0.016053356399816407, 0.27056286341421004, 0.22007421022969945, 0.09865145283537251, -0.15948733358893766, -0.16910127825837995, -0.04800393367352157, 0.08359511873070787, -0.5930315519781119, 0.003788629898157573], [0.29056458305808985, 0.19284581206090295, -0.7741902468645544, 0.03718438008166037, 0.21758790473121867, -0.21770946532559984, 0.29298869031136066, 0.18798104576638092, -0.32305493896346793, -0.07076424988638828, 0.1888176339279488, 0.164764703424926, -0.050551489204639144, -0.09556077441904255, 0.1658719969674375, 0.26827734673511394], [-0.24233013462454994, 0.20337709684316402, 0.12913975115473994, 0.015029900479479217, 0.0038384689295396603, 0.1054204713425749, -0.34740714594078925, -0.18738834777657884, -0.2199882202677687, 0.2326581264188076, -0.09374116377483815, -0.0931998398737888, 0.056951768015256005, -0.3215554647582169, -0.33887971085759805, 0.0890520599163539], [0.17307997516269732, 0.2173218478638721, -0.16941477454691814, -0.3419463423667455, -0.35977640102831526, -0.19270770068987483, -0.1558870704947177, -0.05393908335026847, 0.042202551149264356, -0.19657979410033347, -0.49025437465661764, -0.3926000627952703, -0.0466383964693383, 0.15113159136030185, 0.2546995399628708, -0.5342465329390651], [-0.04102212082662421, 0.0076423458611099265, 0.039054562072081675, -0.16849849700545066, -0.2686007963289958, 0.07748171968261582, 0.4896502393570671, -0.09780522977456184, 0.34522033867958624, -0.2829024587138168, -0.2910337821627895, -0.19340516407117309, -0.15804236935278484, -0.19633316480563515, 0.03932143842548052, -0.08025817082898415], [-0.2727963771603341, 0.16432141185361407, -0.32217126464388895, -3.507762550559398e-05, 0.17929948936625156, 0.11655926142738056, -0.10574052716849769, 0.09033368192573271, 0.022093968283048816, 0.02867803758606863, 0.3204659140268385, 0.25365259623393344, -0.08429209015895325, 0.18428096002570118, -0.2135324216850816, 0.048945711674656764], [-0.01839383391725127, 0.13690810074384333, 0.15135413075218418, -0.3145781986425435, 0.2844217802185464, 0.11768077914254661, -0.18401016817812196, -0.2580058261360228, 0.2545047135575405, -0.19438196174473246, -0.11053952410467839, 0.04481715480043597, -0.04992422166612403, 0.4742520577487482, -0.0033739582350643172, 0.06875940471109354], [0.2325112872773611, -0.4746153241258477, -0.04452319562527696, -0.18103098724991948, -0.2690066876854807, -0.6402720788133155, -0.050487313569883695, 0.4409894312946216, 0.3540619652159248, 0.0351759516943306, -0.07920174322762723, 0.0029338576106314575, -0.06904199316869178, 0.5153382749581158, 0.3804679023659123, 0.19469406651760773], [0.01597342023834698, -0.31123202377451165, 0.030152471984808877, 0.49960725128986744, 0.18615326815401634, 0.16907655669919885, 0.11987771355414341, 0.06423926986516748, 0.24140156990635356, 0.09086585368541798, -0.06000739398757257, -0.3220215337525815, -0.08425955653376885, 0.1335554361844768, 0.23173003946741427, -0.034965345526662986], [0.04422928644699976, -0.07698887302872691, -0.006716918272035765, -0.015441036880913753, 0.34783575829057434, 0.3920039816210082, 0.11142884308573166, 0.3138501817400858, -0.25235582435523957, 0.12317663730800828, 0.15360002669401318, 0.21833218985386593, 0.03167375150818452, -0.1938956072946821, 0.4297419879764553, 0.24882390992915984], [0.21574836885975643, -0.1457460742269019, 0.1624663366979466, -0.2569889322585691, -0.027599863841647525, 0.13713547813493912, -0.1604672103657738, 0.23601314314710045, -0.3278971787387116, -0.3089403403183737, 0.02884660698825102, -0.05109488757096723, 0.17914422380210124, -0.02623891266603474, 0.0006130031887213411, 0.015796422190692643], [0.04922225868443772, 0.012234121398723248, 0.28152358557714063, -0.141686572469181, 0.3743227243034254, 0.045268780083195535, 0.23904631933833445, 0.03841992593569965, -0.05692756003142825, 0.13529561175690133, -0.1855982333812231, 0.06025783663320393, 0.05622847292088964, 0.07419618664912737, -0.3477750439129434, 0.30166606413586033], [0.1123003275785195, 0.31200829204273456, 0.3541530663364368, 0.43866674638415715, 0.15893385388121942, -0.06833737233374568, 0.358424852537803, 0.27430120458655055, -0.0818198161605336, -0.07404172728489342, -0.0850519900596881, -0.37366618956253245, -0.15440215946222738, -0.10098496646894098, -0.528158090634453, -0.10181088400846461], [-0.08419807316309788, -0.058696347915865546, -0.14220963822199037, 0.15165223829918761, 0.18308922783391268, -0.11828799813624526, -0.3309650173836643, 0.1746827884235304, -0.08049478211675529, 0.39964552647626594, 0.2569549950239655, -0.28650547615382926, 0.03699322037973585, -0.22309849167669266, -0.028426870858331302, -0.05059828032472897], [0.18173391273209114, 0.23948050276761124, 0.22781546766465807, 0.058187827506614276, -0.4237843515467936, 0.1137852597619994, 0.41795676870522747, -0.16647828180047203, 0.01986933275161459, -0.03977215846701895, -0.2501605195668077, -0.33554396823872557, -0.0987505086951299, -0.14241804224927235, 0.30050278829535454, 0.40638889084862917], [0.12423973815609797, 0.18516292935734, -0.00017904440929714937, -0.3815217249257057, 0.02271262064250471, 0.027321783889331305, 0.43302038264932585, 0.14532059780806333, 0.10954119904803412, -0.11808534448365543, -0.16496767453824876, 0.07876863964398875, -0.08828056315298545, 0.2534200626042071, 0.26225017430513925, -0.08289815456658861], [-0.03651601298403293, 0.3235753622430194, -0.3704025805030822, -0.0957583359448333, 0.1010218706223839, 0.1742422052232615, 0.07720867870941872, -0.3131602613887421, 0.28232811745690733, -0.6265136120331035, 0.27601060734631977, 0.16615448397588387, -0.20735568979082175, 0.11891752618261207, 0.13938553726628516, -0.02460632105979665], [0.28012649479745333, -0.5609592287297862, 0.4444671039654126, -0.5337175426056986, -0.12460512017957033, 0.03053109028573791, -0.3337625277582103, 0.22681465687804753, 0.06961989064368938, -0.2003947610612493, 0.5626866260682809, 0.0015633207574934993, -0.10791495481622826, -0.07464100598959084, 0.1344718235250481, 0.2594388123676898], [-0.12458319847861994, -0.3120467391495799, 0.7068689606536099, 0.14116673077345607, -0.2077402886087902, -0.04367938925428101, -0.17274052018868033, -0.11667535060892392, -0.2586860649465549, -0.20101943374122042, -0.1456753114279556, 0.19596897619084563, -0.04681346199464864, 0.14621173841754553, 0.22882034686210964, -0.05162916293864978]], "b2": [[0.09045642745703726, 0.0, 0.0, 0.0, 0.0, 0.0, 0.0, 0.008044353317073892, 0.06872856807040831, -0.015122189506291796, -0.022365393758956395, 0.0016105283762854416, 0.0, 0.07393748479571964, 0.11699019952726482, 0.0]], "W3": [[0.6389137007677487, -0.0675933962180647], [0.0680615758550843, 0.3250153685312803], [-0.2799819760349502, 0.4345246393320158], [-0.2288069975396402, -0.35331009235529154], [-0.027050461911639068, -0.1876871715903887], [0.14653259086512557, -0.3753420091988154], [0.6348755019684882, 0.45686439878604274], [0.1828377368534542, -0.2186820202556949], [0.7793223233223898, -0.23596048575619238], [-0.12574239001331264, 0.0570392823026518], [-0.583937419929523, 0.17936103519709026], [0.03468962824257201, 0.05024690723069479], [-0.05833054036335937, -0.3690411513384191], [0.7173310317628581, 0.3414927021998251], [0.6179733941019924, 0.3046746090311858], [-0.23467979749473392, 0.30365814309014166]], "b3": [[0.22842443859200046, 0.13355546893877265]], "epochs": 50, "architecture": [5, 32, 2]}