[{"weight": [-0.24650795511866708, 0.1347310852605705, -0.23977705338811056, -0.2019170154802808, -0.2189624238730194, 0.1299858327256864, -0.23603766436901727, -0.04305807108531654, -0.17275315600017388, 0.006930892384659772, 0.07028895395450148, -0.02983420853192624, -0.19728936264637725, -0.016005490356212706, 0.21264424712209465, -0.21719861294143927, -0.298018012368125, -0.2557629847015083, 0.06473860139162045, -0.13204226108540604, 0.12965966232482953, 0.20997599346176685, 0.21710094521590356, -0.10856539127728979, -0.1305715740297765, 0.021555347198346914, -0.155302032298096, -0.29561039230003483, -0.05571891986784587, 0.3312212129214181, 0.11836508466897037, -0.1801219619402256, -0.312202652541108, -0.26891904903258784, -0.0013433738250136936, -0.06973970545382875, -0.1048161232419034, 0.06341497885410065, 0.05736632958243817, -0.19639557989832826, 0.12386209494536542, -0.2918767884301505, -0.16453501937445608, -0.01416259608367809, 0.16611061164359053, -0.22045262479731723, -0.2851264567348719, 0.0722712720321151, 0.036142885429545066, -0.19340736832893574, 0.15957885054177012, -0.10351819471867905, -0.13156052958404726, -0.07024994584442242, -0.152444648203746, -0.10174279255566318, -0.0844859060683878, -0.11592696719156069, -0.12981608432509895, 0.13559860698620338, -0.1306900658615863, -0.21569981402415597, 0.12259919539393647, -0.16623853038636588, -0.24725700392443548, -0.25457223838792825, -0.24414258249031853, -0.1452294221864063, 0.27954018943590014, -0.037922423349967635, 0.3284527867349512, 0.3327988182057864, -0.11816493730384241, -0.05432894794132164, -0.28845536206609507, 0.20602723894129446, 0.11058310263170194, -0.18113624080983826, 0.255218440856962, 0.11765271855694559, -0.2586384965566062, -0.321980129987514, 0.2750790383893968, 0.20605401103507837, -0.26234562841683917, -0.23622047537539334, -0.16674607658311905, 0.058091243211879626, 0.2734786291729577, 0.03164116938989542, -0.21812000701271284, 0.08393899968888319, 0.2956694740412148, -0.1908689272411142, -0.16489676093247718, -0.29110637781245474], "bias": [-0.00028947704044201416, -0.0012336146630330055, 0.0007864450389801637, -0.00011481826143444084, -0.0008888823452738742, 0.0017358867137709883, -2.397329874080905e-05, 0.0004897367671127371, 0.0007623707512313852, 0.00042162157291321893, 0.0005124849850049619, -0.0008411768815316056, 0.00033628376494042843, 0.0008989857264913666, -0.0002712837471169184, 9.895156369236229e-05, -0.00014633076267735502, 0.00019764994228315048, -0.0004966449967596437, -0.00027729448357664756, -0.0005142831886717679, 0.0003573919662709122, -0.00013705781234343644, 0.0009881163118947009, 0.0008288993714957047, 0.001989307802212637, -3.0841309405806136e-05, -0.0005594678795508279, 0.0008163244505935332, 0.0005764225645401913, -6.181497641263922e-05, -0.00015374168077480222], "is_sine": true, "in": 3, "out": 32}, {"weight": [-0.013437616441859531, -0.0031097186372889387, 0.005823405451179433, -0.009349343999308273, -0.012207184933860431, -0.008817922445951861, -0.0016330926602819292, 0.0035255422793509504, 0.00408012099034532, 0.011896135715882999, -5.391387388618537e-05, -0.0007699195923304335, 0.012983618954156671, 0.0076909418796389985, -0.006246408984098797, 0.010239899561536663, -0.00647577985082528, -0.0011274298548236646, 0.0022105049022527576, 0.004326274935521473, 0.00443243791097008, -0.011625581166564758, 0.008070396013820149, 0.005078691533669415, -0.0026810190860251147, -0.01282884734425557, 0.011573356872386503, -0.00252922216386997, -0.004670320556619489, 0.011676599063040728, -0.0012235935001146652, -0.0013608393611544826, -0.0026817976128455634, -0.011077617213606243, 7.762363015613257e-05, -0.009062493946745987, 0.0028438096534908197, 0.003064913200957844, -0.01237584939188546, 0.011527100035706882, 0.013015234364365847, 0.0054488314185048, -0.0067957171639891865, -0.006769258778133635, -0.007273244717807791, 0.0033592591492412004, -0.004895489596310082, -0.011513244841902673, -0.005574156252739506, 0.009598667279745149, -0.001266440297256581, 0.010360585592237749, 0.008126645127342305, 0.006886104931827408, 0.000988489504837684, -0.012957360850386372, -0.007292390791152689, -0.0046824139379368695, 0.012991693964579078, -0.0013062347617699183, -0.009093492503741203, 0.007570497360541653, 0.010840458357705352, -0.006088461862651823, -0.006707141096502223, 0.01072119243529096, -0.010475773377158718, 0.011422316523234381, 0.012403651625821343, -0.01362021230786681, -0.0001791894829997334, -0.00819628745322944, -0.0013881733511751206, -0.010029086785597437, 0.005391763618396249, -0.007381578582112001, 0.011858206967786226, 0.012480349764567945, -0.006388810054855444, 0.008752390126475773, -0.010154714000561825, -0.00977358050659533, 0.003402484797865977, 0.008433431028015687, 0.014596717562956867, 0.004547686242800125, -0.010930192715554095, -0.004378271163521898, 0.01132400626076136, -0.013573297178192178, 0.006232850009982341, -0.00015510432001919952, 0.0020165314453504633, 0.003508688869115714, -0.0021860986524773547, -0.00334498453627242, -0.00981986406879898, 0.012690449929662673, 0.005158999233569632, 0.00719817740678636, 0.012722236135167887, -0.013466297666278312, -0.009122214952811838, 0.0027498825374173822, 0.006297383895804856, 0.007150524474692965, 0.009804259206594428, -0.004255731615732952, -0.0007142589195507509, 0.0034469278215284267, -0.006085884086820276, 0.002268126740342169, -0.011840102608592433, -0.0032426308035072727, -0.009966210956822805, 0.004849812159903428, 0.011062914431959663, -0.000939537489521275, 0.003025262710191737, -0.007649109111174594, -0.0035956377010978925, 0.00379001472223878, -0.0073797255139235836, -0.011881457376540826, 0.0032413321187870973, 0.003631045440322553, -0.005933097284740399, -0.005308505231321377, 0.001712884859544771, -0.00328665123472144, -0.01265207022030764, 0.013598373867454706, 0.010784328292427533, -0.0064694685990861174, 0.0022152059932592154, 0.004063920005428427, 0.008498107489795181, 0.0017414626406999877, -0.011400755458931619, 0.013392779127158423, 0.012035119423114384, -0.0070668893604301465, -0.008611176775860018, -0.002981162373921452, -0.01347000528265342, -0.008372197281183833, 0.01288867696615574, 0.003485210895372966, 0.013053797571539068, -0.010532421808087795, 0.008818002092688475, -0.008458909276558213, -0.006678028236777604, 0.014865594408834622, -0.005422134711997691, 0.01319184731934436, 0.003748952355059009, 0.007868806437835526, -1.1501684436234048e-05, 0.00283540744384276, 0.012449092087387679, 0.008932569174638217, -0.0006446431514517734, 0.004523832916489988, 0.003759464710563285, -0.012828153660854866, 0.010531789596399539, 0.0012171761970625331, 0.006763391296419496, 0.0010700661817962102, -0.003684267445292116, -0.0055966315760756094, 0.005510172069196211, 0.007786368181404976, 0.003134758468017719, -0.009222173258008467, 0.003818370496392394, 0.0012879869487371714, 0.010243776964124238, 0.005576211525516259, 0.009614621951006866, 0.000853503247013251, -0.0012356672591161244, 0.004764515230352162, 0.0024390154915122013, 0.0035372799783666797, 0.008765836513599416, 0.002443820410100697, 0.009694714184200303, -0.009756022413519793, 0.0016849541684635257, 0.012808520354659902, -0.009319441903417824, 0.0025631910848883483, 0.0048247126144297615, 0.014253648689209527, 0.009922994727535744, 0.008456526139043415, 0.012974282959697997, -0.003057547564391344, 0.0008523718328586605, -0.005416465234524438, -0.007617660030981557, 0.00957271241330543, -0.009283144346485, 0.010179442065398552, -0.012661375698504328, -0.0043264299123891205, 0.0017649799444718795, -0.00788055174123218, -0.004819932921424837, -0.013295850179578992, 0.0022104264311507706, -0.005609177869768056, 0.010277059405333251, -0.0022036655587943446, -0.00473211975046104, 0.0016956095713725572, 0.011049203663699343, 0.011991494855735549, 0.01110168630625166, -0.01306173580140161, 0.008026746748144879, 0.0001568732481817243, 0.010507148669228071, -0.010670816251195337, 0.005086494954115901, -0.00741968575515429, -0.004103345633419533, -0.011885406714882953, 9.572339654228221e-05, -4.944616509704351e-05, 0.007564830285854308, -0.007548763100156821, -0.009420186129017686, -0.0035343180223719206, 0.009113172809634664, -0.01092024728150517, -0.0069280298638861836, -0.01350860796301593, -0.0031579662679330203, -0.0014596441453791778, 0.001224972227754135, -0.0066583877793501165, -0.013754154241877327, 0.005365075054120045, -0.005963553872471025, -0.0012918958667584807, -0.013853245723256863, 0.00614728121727311, -0.00651829426755874, 0.0012130134884107307, 0.009611715554372237, -0.005328622043090298, 0.0066086613239024795, -0.013300434420835469, -0.01366410902855223, 0.008999404532017712, -0.01158738640231053, 0.013672769324023518, -0.004336587339673762, -0.010114172879009104, 0.0006615898630128421, -0.0054728064126156, 0.011894029767345694, -0.007543722330534702, 0.005753963107359727, -0.011156667864220123, 0.0019784862660809036, 0.011194557992037096, -0.003565044163966983, 0.005590762063725616, -0.0013683712346184936, 0.00391861551216418, 0.007718440245667338, 0.003555979002789883, -0.010229439176759947, 0.005655257066018167, -0.012417334949522326, 0.008810670697309723, 0.009033815101687787, -0.014006490406847254, 0.0020030156609113694, -0.007576604098909101, -0.006931309250453453, 0.002898539510474883, 0.011255689280929217, 0.006217117479492243, 0.004549646617732315, -0.0016111931169533356, -0.006977158274177262, 0.012817338487818493, 0.007773452611981405, -0.010623804777894189, -0.0027327208656866275, -0.0030209499354822513, 0.004375496934746519, 0.013461284832434707, -0.007159269438173801, -0.00906245737913041, 0.009115628233169016, 0.00912735718459036, 0.007000669679657854, -0.008876539555770223, -9.926124289446539e-05, 0.0034214595819206522, -3.4575052999754054e-05, 0.004646132684447911, -0.004693355436541024, 0.006086912055043391, -0.000791849558691584, -0.005278002395075473, -0.007201469916572542, 0.012509945707273323, 0.002357452623338157, -0.008110149002511167, -0.0058308453766052065, -0.0026364316438028937, -0.01122061555786529, -0.005146034837761745, 0.008622261454979428, -0.013753938168800568, -0.009443679696063589, -0.0052238155783527526, -0.012640600214564484, 0.0005792197604908838, 0.0019236563837518627, 0.009109840257708494, -0.004577337902924272, 0.012216747078930857, -0.011160954742418863, -0.009157064020645488, -0.002370420188330121, -0.008970460747433275, -0.0053225964028769685, 0.012545893859560073, 0.012793947406666386, -0.009107627666682399, 0.012927308987493889, 0.008781743420895195, 0.00611316365955008, -0.0008188731410200917, -0.01345245340839284, 0.0006548086697172885, -0.00619221847252351, -0.006138854357128934, -0.0012328551344122426, -0.0068946679438057585, -0.003632047748533571, 0.007248914646610167, -0.0051660103976129395, 0.008392140495811572, -0.012326834611445145, -0.008649287246933505, -0.0006350764197707077, -0.012944893954876078, -0.0012602285164411617, 0.008045034393388594, 0.00952264930578123, -0.007999962040944913, -0.013683251297711137, -0.005421077756586377, 0.00698668907873976, -0.006214821513105625, -0.007280215080627572, -0.010810963139234481, -0.000804785365609355, 0.012727075640689589, 0.013099932693746185, 0.004861750839945074, -0.001340159509226836, -0.000886705161607126, -0.013196537878483865, 0.007100266153135202, 0.0019952916452865245, 0.010718295787659125, 0.007041861566622097, 0.005332346059874673, 0.001198982692441958, -0.008368525207092272, -0.00012879482285070695, 0.005986636326721825, 0.008407097876710456, 0.013525300900467324, -0.0010211150836189594, 0.0008542961494951386, 0.004959042295162568, 0.002683582439407977, 0.00786529505783805, -0.006177867926321303, -0.002202562413849018, -0.012039152739359536, -0.01025288181782628, -0.010704631413742078, 0.011723724235249084, -0.011918447782005596, 0.01167318692721556, -0.0058567112136294905, -0.006112198025602327, -0.01024523078802721, 0.004653448715526095, -0.007266254627633753, -0.006279260390033165, 0.00810123238913711, -0.009093943447225413, 0.012590012365745105, -0.0037561025362282687, -0.01307627927676521, 0.002695820535697201, -0.006263027898021958, 0.00248423451213475, 0.010179864809211698, 0.0005465508437122167, -0.011202513179215827, 0.010073303530817845, 0.007281266220402343, -0.0037849677853056393, -0.010653817665142869, -0.009207309182484334, 0.01276426184435011, -0.005275775228700632, -0.007790523694152531, -0.006865713402842176, -0.009914230762840672, -0.00893817683239431, 0.013194135593168026, 0.009221954004439039, -0.012902978681538987, -0.008959861269662263, -0.007948635519147804, 0.0118251777270593, -0.008367189951499914, 0.0021362519935133463, -0.010699167452444988, 0.010055060906517997, -0.001275977952555989, -0.006050741294332037, 0.0022673856706462766, 0.006237143823748188, 0.0007726239685020289, 0.012196755450829516, -0.007373304025081857, -0.009347202101806814, -0.01162340108582008, -0.00611384155348822, -0.012639998596785875, -0.0139503434388881, -0.0005743288643691479, 0.005723521739239492, -0.009359171353678792, 0.013848027902709099, 0.003210210365444637, -0.0011836143435781689, 0.013257996970357257, -0.004712157613191289, -0.0003348434443459501, 0.009539041235879264, 0.001293868574722124, -0.004651003977482788, 0.0011671146661267494, -0.00014467799669655454, 0.009944691712229227, -0.004733648368919725, 0.006360560887152051, 0.009042856648678304, -0.0021821696774531833, -0.011597874897686641, -0.013493176181526794, -0.005575648280756739, -0.008810501655733237, -0.01347955656226243, -0.008528995887540912, -0.013753700915104125, -0.004903771733673812, -0.0012470850525887966, -0.0033510795813085693, -0.0008340236669225051, 0.01105029022754368, 0.008961655188219194, -0.012384866431421625, 0.008456783132013583, 0.007600021777498303, -0.00021687193249168797, -0.010010579192084165, -0.003448910617830262, 0.0023115103261889007, -0.005937264096349659, -0.006085910573477364, -0.005360741369319337, -0.012778730979731381, 0.005829343166711906, 0.004057835325225609, -0.011780337353404332, -0.0009143653315620428, 0.01342707381821025, 0.01350444853557403, -0.004902027055540364, 0.008571088798579886, -0.0052520584063819814, -0.003313457687190942, -0.0025977761546856467, 0.004973161566186169, 0.013419319311781959, -0.008393256682182665, 0.006480677112337413, -0.004592998606839278, 0.004778294526834856, -0.006927839824062871, -0.014186898835850753, -0.0039953467396185325, 0.006768146139748231, -0.010300683717227924, -0.010401798750117541, -0.008135679267094912, 0.0011575140135297605, 0.002793233887525032, -0.011948865638255955, -0.013020669845956918, 0.010214500990558656, -0.0061362308172799, 2.410312037220533e-05, 0.002551282439989886, -0.0023312549812683383, -0.0069279926648918725, -0.005014881417927092, -0.0027568731423535534, -0.0004059276048302339, -0.012125189564819732, 0.005077549627290975, -0.0003691833876121293, -0.011008361885746044, -0.011616780604338482, -0.010774240219620687, -0.0022871668738029902, -0.006382735111279427, -0.0082043695295949, -0.0034257322530991214, -0.010830213962211142, 0.0011533685758053668, -0.005012479167837871, -0.0024617248180836817, 0.005238625589894824, -0.0018307723545138359, 0.009194446739348161, -0.01376003653899654, -0.01005917700331191, -0.004316014803757205, -0.0023002668497048924, -0.008899608261371119, -0.0030298254091697466, -0.007860254936942576, -0.009523681700334135, 0.0062263164059386455, 0.006848115716229268, 0.007462059678502724, -0.014732739207791582, 0.005654802716813958, 0.01197997166930868, -0.004506557151133666, 0.011031499627220645, -0.010960574607627288, 0.005540638930822207, 0.003417166181235728, -0.013526606142970788, -0.006869229093110301, -0.00888784731042612, -0.0024324006236613074, -0.007831280278834042, -0.009057335909189857, -0.011454168397578159, -0.006717231485846257, 0.0103302804185897, -0.014626373153315959, -0.006600871330517601, 0.0025412719337150336, 0.010273997938429782, 0.009167375387346544, -7.213109506218977e-05, 0.00650384225653021, -0.0028145754863649276, -0.012305358301611521, 0.010106259652476707, -0.01244779536497255, 0.004713072447077108, 0.0059988745604859384, -0.01015791759562729, -0.0010563102076374881, -0.0062814861677373025, 0.010006117128848215, -0.006109975243763576, -0.013261785573380298, -0.006861793761371719, -0.006534991159841418, 0.009113516830527867, -0.0014841312329475116, 0.005569795793796233, -0.009427374205544915, -0.013285480076436857, -0.010497951624480216, 0.009679157246909206, -0.010161928814119167, -0.007531454350308083, 0.0027818706540558616, 0.013050260606737368, -0.0013222587657844619, -0.002107649243484733, 0.005523579542444884, -0.002748751925544788, 0.01388721581900723, -0.002449680216275874, -0.010033507665536153, -0.0050798900021674556, 0.0033121180118278167, -0.01149516211079726, 0.0029546154358554076, -0.009773988817685913, -0.0030179671867218765, -0.0023430227815170205, 0.010356982612444696, 0.008038465787058104, -0.002009845116542491, 0.012791251766917556, 0.0038827875777667237, -0.009471709885817204, -0.007168397672869495, -0.006928707399650617, 0.0061865560947887786, -0.008954071022663053, 0.00460645433972185, -0.008284842808066888, 0.001767448791854997, 0.011645799161501541, -0.004463501045089381, -0.0056294612506902625, 0.0029495842533807264, 0.00598185499608294, 0.00989251732200113, 0.002216630426928444, -0.0017367114865787141, -0.008290550453802252, -0.013634276846567775, 0.0010224020368089987, 0.0037724982577719162, 0.01351875320566047, -0.0029151996568559193, 0.010873102284926191, 0.002123687821840167, -0.009105834853967085, -0.004335921420623079, -0.0017594866441349756, 0.004373470915484261, 0.01250239420347068, -0.00192877729220042, 0.013575027105771078, -0.006312098838738569, 0.00024477051751262645, 0.004542674668680982, -0.007650368539640124, 0.003253897931756205, -0.0010719112958818072, -0.01197695018291593, 0.013329968026941488, 0.009350225140495143, 0.004700549289914205, -0.0038596192486978643, -0.008261359412813328, -0.00811104376919198, -0.0004210317835901722, -0.004156343449756812, -0.0006207766481562957, 0.004772907485320018, -0.004698500680988305, -0.006062664791267712, -0.01438681145206493, 0.011130499229835895, 0.007493965219176407, -0.014163633845424607, 0.013221628940390681, -0.003004981541765012, 0.00825003608590766, 0.0061197541019412174, 0.01163545912795821, 0.009118114899787559, 0.003787956688015598, 0.010810043804787627, 0.00907582867530151, 0.008179372371554916, 0.005811243951526521, -0.0104875462516759, 0.011540920283389664, 0.006064890010096269, -0.003177231311450112, 0.002283080125475002, -0.00884302713889243, 0.01278549364161561, -0.010555738465919895, 0.007564664359549566, -0.005203693851019868, 0.012202135323442524, 0.0043825490524496465, 0.011279307413570683, 0.0073317485354311065, 0.005306541313276283, -0.002312058608179853, 0.002535600065065785, -0.012073557251799665, 0.004612912192096129, 0.013669555042062638, 0.010418129336525138, 0.010311998805160054, -0.0029151694153673026, -0.0017002248246443027, 0.005856682924863942, 0.0033017946656846457, 0.0013114361907430726, 0.0106132855912801, 0.008727991125057141, 0.0030921172056831104, -0.001995549066202349, 0.00504494702411766, -0.008580340229400157, -0.006018741700139344, -0.003050187878671075, -0.004847308380104187, -0.005197715491495457, 0.009363777036076514, -0.012619009031746283, -0.006127457384299739, 0.0031940471426953015, -0.007867645624275683, 0.01214333081543193, 0.00551665502101031, 0.0055466919609537405, 0.0066022906571437875, -0.007504767633863909, 0.009034678460034556, -0.005192419656634822, -0.004215534716215734, -0.003576040835254519, -0.007110576778356101, -0.01038675444434809, 0.0022594452279022527, -0.000278625361413367, 0.007435369625593287, -0.005873807310695408, 0.004789450892625471, -0.011478326588612595, -0.0034763418172652034, 0.0060441923794382745, 0.004724780960641629, 0.011572464460775525, -0.013314813307266629, -0.004224530529854446, -0.0012578429269993084, 0.010469772132779423, 0.011103921950964744, 0.006523592448785641, 0.002255836440145205, -0.012791133317488752, -0.0015687213681379263, 0.004378124855505221, -0.01350819371410965, -0.003909070723318424, 0.0010777164741108413, -0.008726807480415363, -0.012779783902086287, -0.003881084067715367, 0.010950046433958527, -0.0006086724524708967, 0.004819939129222904, 0.011015019020867493, 0.003966661363470705, 0.002514398311022773, 0.01331698942315883, 0.014080519355277097, -0.007144186527090472, 0.0013107047699392573, -0.008050968049533537, 0.013651897409666, -0.012447675712789224, -0.007321037457942593, 0.005604574125186835, 0.006834509783849456, -0.004457403269257893, -0.006108346032962984, 0.009697450622618826, 0.003715332610568003, 0.00969615195195201, -0.013459613078666922, 0.012751176085773756, 0.013289641348874367, -0.003670590709791056, -0.009695988144133983, 0.005953306662144577, 0.013245866809816013, -0.006692814641297019, -0.005518382347295513, -0.01414551004737636, -0.01157113200387568, -0.007843877031249514, 0.005957203020021619, -0.0031952937448068318, 0.011780558215891074, 0.001619007725382156, 0.007789757793612443, -0.0006031356108826379, -0.0036861081068518494, -0.010770402804586967, -0.0011157714099044147, 0.008740537015361514, -0.009088614561298378, -0.0022970933166348195, 0.0046639815251569355, 0.011528027180803426, 0.007404911043797263, -0.012562856064968536, 0.0029384455239592627, 0.0025520172055305155, 0.0016169723792479505, -0.005115541141074777, -0.010119484243727911, -0.008322990544252284, 0.010522690960971776, -0.007610227250176149, -0.0009090144944188882, 0.001741647091181951, 0.009366173434104107, -0.011555763241353925, -0.0009602428379564019, -0.002734620312314266, 0.003981533168848325, 0.0006640581218127069, 0.00022052313094969136, -0.004369625653955383, 0.013681895468119694, -0.013691155172565826, -0.004589590588294728, 0.007682901747405669, -0.004909249325451381, -0.0034815081537764815, 0.008886971861785942, 0.004414336252343268, -0.011438703258162843, 0.00520694194069901, 0.004270731808737628, 0.011993983072513604, -0.013157172878674435, -0.009810677137164483, -0.01381849958046962, 0.003828265818538802, 0.013602242820061375, 0.009271691734167033, -0.0056207185926286695, 0.008689011766454622, -0.006234133783396018, 0.0048459968598927525, -0.008239100460115131, 0.003289620254224413, -0.01133435765511435, 0.004940101907338378, -0.006603192277090608, -0.0032531343854969442, 0.0057734284113806515, 0.012335949236675057, 0.012926307982076496, -0.004948546518163061, -0.0018975301588514853, 0.004433540418171891, -0.010744479807711465, 0.002999926778575785, -0.004117987096519771, -0.006669688841871281, -0.014746090382734557, -0.003466815250463818, -0.0007084758159419922, -0.001983927798462136, 0.004267229918267842, -0.00500790084247174, 0.010656061512424443, 0.01020991951859503, 0.011543571557576644, -0.008692761401183408, -0.01242395475052209, -0.004915042984109226, -0.01156758521212381, -0.005805493003906024, 0.01356146467478057, -0.007683980484124506, -0.00967895774091102, 0.013257387015751439, -0.014304258762909423, 0.005632734743311024, 0.006387917297470044, -0.005780300259894865, -0.009741949740490622, 0.004267186939980644, 0.007899422516783683, 0.00913301415753282, -0.0033133205911944482, 0.007485549045881601, 0.0012091320268931038, -0.007824842981902466, -0.003553963373109568, 0.007861890263220676, 0.0010243252004661697, 0.003943574123092572, 0.0017994236641602694, 0.003901213703763493, 0.007307291247665134, 0.010153044136182255, 0.006991563369901331, 0.002637365304053562, -0.00941519163210341, 0.01326708205164445, -0.008292693563969288, 0.005377518961878213, 0.010436166731734097, -0.00022925005262312595, 0.006682749162688636, -0.004375549160279692, -0.007918472956390228, 0.008140243664029474, 0.0018267647287907476, -0.002675841761911401, -0.012035178903387577, 4.56125929042343e-05, 0.00561964943512843, -0.005607270037311199, 0.010476381697896064, 0.010966001938296333, 0.0045359576020718925, -0.013002841602188434, 0.003284313142597668, -0.012263239156696033, -0.013364648528907095, -0.009141592232886974, -0.006555716514951857, 0.01459144657711768, -0.004744710597977218, 0.002722175683270732, 0.0028891004441757556, -0.009408764201212928, -0.006316481818379146, 0.009853720358475976, -0.0015851903075071367, -0.012236589539066233, -0.005201994445832382, 0.007151206975898603, 0.011914478951295802, -0.005068537113608608, -0.013313991946920728, 0.0016220194992405794, -0.013207154191250691, -0.00854343796750897, 0.0057605809853101785, 0.000556965909773613, -0.013611734949939888, -0.0006221817290916991, 0.0006415749145219379, 0.010179540613486797, 0.007377733767286548, 0.005664896392276074, 0.00611828126613424, 0.013991973521417757, 0.01039249435666224, -0.003282478445592974, 0.004381611736974328, -0.008279886993533467, 0.008820924646713387, 0.007554275015117655, -0.0060132698698680265, -0.0005304507634401114, -0.0026739377153779283, -0.003250507755219278, -0.01185390321403403, -0.0003232661205914611, 0.0001323405219020804, 0.003657311954586568, -0.012393656037406473, -0.0044866561946382885, -0.01229960600555037, -0.011786800876086604, -0.008181994295485443, 0.011941635160228049, -0.007293651762535708, -0.0033905889318660938, 0.012961837570256002, 0.0104293302156849, 0.0107445698393899, 0.014984592673806368, -0.011003639525320458, 0.01106088049541023, -0.0007413923630737864, 0.009926430505585882, -0.008291317402600466, 0.0010918955583513032, 0.012563454608154261, -0.005669723300040803, -0.013011389916230173, 0.008807210714823934, 0.011538247052379092, -0.0011715940768677047, 0.0044937013562792475, -0.00670235387057848, 0.01269726162844503, 0.013534639019076047, -0.009387992180182964, 0.01222155638750246, 0.00648449384659999, 0.002395591967388768, -0.012233024147250438, -0.011112005464397792, -0.007280792791856991, 0.010656214832702874, -0.005652872393593205, 0.004146536873205366, -0.012786101483671515, 0.009023292785462185, 0.012849374419840132, -0.0010754672903735274, 0.012510420117745277, 0.009438041617611559, -0.00487196805610958, 0.004129461486522223], "bias": [-0.0040629943353287555, -0.007511348337363234, 0.0011456707177518682, 0.0012206363552209403, 0.007361113482830861, -0.007085647549438991, -0.010152187142087026, 0.015084438151920234, -0.010458454006518177, -0.004371630689130753, -0.010150385192972608, -0.0071503625314943324, -0.014795151600988222, 0.011830184905285765, -0.0010438731053050564, 0.0016159747086063661, -0.00872089961172637, -0.004116587965614461, -0.008975492975733012, 0.00634070794693544, -0.001796641859079925, 0.007544836270826984, 0.003683922270427372, 0.008415674870661652, 0.005117743128619641, 0.006789292043588333, 0.007783349990303768, 0.012259910105301856, -0.006516431023440939, 0.00524583153700596, 0.003244021434804771, -0.007954373017933806], "is_sine": true, "in": 32, "out": 32}, {"weight": [0.003656250767116241, -0.0038697386973828764, -0.004613200784584233, -0.0027442782402037676, -0.007498285477536542, -0.0007213843085400482, 0.004039601928743804, 0.0065624940230699655, -0.0022693512221023614, 7.518025512348447e-05, -0.012893093109746345, -0.011861871107615437, -0.003981450940605925, 3.22760784502997e-05, 0.010960802443699489, -0.013118030103703958, 0.011042360603759668, 0.005536772197524746, -0.001180127519009568, -0.012492211545281505, -0.003182047631513331, -0.002402749332064679, 0.006615393778957994, 0.009716718059173412, 0.010918371384214118, -0.012416345752103652, 0.0016150037385634362, -0.008721602657300927, 0.004575890172335301, 0.006159655762282791, 0.0068343687028825815, 0.007603153009924207, 0.00470593100346566, 0.008144363416859271, -0.0017938221079132743, 0.003057211686383342, -0.002348563984009169, 0.009500453510284187, 0.004702357733789326, 0.014161873630173485, -0.008264797507891726, 0.007968912611715472, -0.006473872392329292, -0.005141974241755032, 0.0075642997991400346, 0.0063536790668387855, -0.004898004641990612, 0.010353150013491215, 0.010728750565470065, -0.008292810783738577, 0.006773634683070856, 0.004000470431060079, 0.01347212661790101, 0.012356278046400477, 0.008359109730929766, -0.011712029196537178, 0.01400222199897781, -0.008417126690642426, -0.00022623521065191104, -0.0078467832748861, -0.006297202481174943, -0.010328630765863323, 0.012994195774098636, -0.01285287987443432, 0.008498146976466366, -0.0038322429911872417, -0.004492247071007673, -0.0036025389106551504, -0.007209916095439876, -0.012223169996641156, -0.0009579571372338426, 0.011775814902534616, -0.0013159333472983327, 0.0007762701346487399, 0.013296211162964656, -0.006579104179085027, -0.004157050348846598, -0.0043275541702469805, -0.00502308512488394, -0.002315913123404261, -0.01090982959233499, -0.0016014116510906459, -0.0038125871911780197, -0.004940788123686923, 0.00012619848647958643, -0.003560302464395228, 0.001812419827752443, -0.0015037428646512995, -0.01209818385499927, 0.014280570423432212, 0.010932321183155187, 0.007028209758159362, -0.0017031074185381754, 0.002037251276867603, 0.00968925047877262, 0.0014778538619774216, 0.010378741589158545, -0.0002678455488969636, -0.0035118097108398816, -0.006413857384970364, 0.012219884337487937, -0.001694604568998343, 0.012469624278064128, 0.0019500542016675194, -0.006787351191577387, -0.001524602179665173, 0.002550642734578717, 0.0009269269339089278, -0.010486432154717932, 0.004030346314955369, 0.003302293865351912, -0.002808103615364825, -0.00722233153322821, -0.014513478867668675, -0.0011067745793418163, -0.01105444028905217, -0.0017289009706307353, 0.011223703681069133, -0.0024090369136880816, 0.010304723423693823, 0.002336042737245712, 0.012195906242591446, -0.004488354603674293, 0.0050817024092109355, 0.013087830110362537, 0.00686141247141211, 0.0027260422842317706, -0.005655912030855778, 0.004431747911324393, 0.0025010441959356085, -0.014153950431864114, -0.0032670099517085947, 0.013936373893229843, 0.005863482712033606, 0.008949536086331917, 0.0020684699655781533, 0.00031598608730299804, 0.0029007731211875658, 0.006774058538983432, 0.005938614181025863, 0.008019915721314549, -0.007558485594490513, 0.001912242920473248, -0.009675124670946991, -0.013101619026915643, 0.011276892310331299, 0.013602798242709824, -0.011386998768764816, 0.01205005350389074, -0.009410805768565091, 0.010154244580785636, -0.009793441228245702, -0.002663280335201521, 0.0008235752150836641, -0.008212161288874942, 0.012565774900377275, -0.005491521445314707, -0.00015010142663894534, 0.009302045029079394, -0.0014252758955906847, 0.012240306818460583, -0.011049597044039001, -0.014118218361467608, 0.012315951509956432, 0.006516517785015354, -0.013706711505821511, -0.0038371018841441514, 0.01229919118049734, 0.0007094561407504001, -0.0036362129203534608, 0.006416034532388912, -0.008047170284438222, 0.007907250465079192, -0.008821865303988805, 0.006467500881495673, -0.007474593611255841, 0.0037808034036913227, -0.006790633938771693, 0.0043023194654692185, -0.012790096438517343, 0.011281976178027057, -0.010996969785201099, -0.007506753310841585, 0.014336421407799217, 0.004658276115256524, -0.008970824068053107, -0.010441013123216455, -0.011554972801734056, -0.0003630635950338132, -0.01164186743081212, 0.003698708185053029, 0.008310527864130585, -0.00942025992273621, 0.003277866815304619, 0.003346593787640814, 0.004203684903743636, 0.011779657333105625, 0.009987394160223626, -0.008953611006956684, 0.006042534185034906, -0.010114698527310086, 0.012708778510082237, -0.005095614534058133, 0.007705783340709329, 0.008353538446767794, 0.00011127758599766233, 0.0032175719370218805, 0.0018903204365356705, 0.011203869606546053, -0.004470343305476494, 0.00888462145726614, -0.004139391824544424, 0.007699485021305662, -0.0011438921760395203, -0.0013367085344542916, -0.0034406983467948587, 0.0010638090207343862, 0.007716861995770273, 0.007945790690094079, -0.008695783645153445, -0.012996181220915668, -0.011453315260777554, 0.006791418970273184, 0.004838843906370244, -0.007567976709925683, 0.009956560908665481, 0.013122321187882875, -0.013779328811816665, 0.011704369414280753, -0.009232520108490384, 0.0013958925303519953, -0.007104982615574652, -0.0072860853609206366, -0.013871872208832403, 0.011592062482157234, 0.010987555508333033, 0.010497938758739134, -0.002432551540516066, 0.006969622536179314, -0.006332952028716588, 0.004456531685193936, -0.010837382133526004, 0.005838193949789111, -0.003294479089725982, 0.012179021530875994, -0.009795688888985504, 0.0049411991753078215, -0.009628663886974795, 0.007636202493138325, 0.005922053767051742, -0.00386444088394921, -0.0033614134530528168, -0.005140977680969956, 0.007821535964848877, 0.007860232200527114, 0.009100606749886792, -0.00744646794199081, 0.007971904621162668, -0.007746058579040061, 0.012338603175972664, -0.0010445759248777582, -0.002768746243679632, 0.001129035347431073, 0.01537820822709396, 0.0016969517476159552, 0.0016759855016210555, 0.00793799575703253, 0.010655288457421263, 0.004506759692044802, 0.0071127121958719395, -0.013277690218793426, -0.00022913339439475388, 0.0031462018006360613, 0.001329419053344426, -0.0067274295962372315, 0.008329185622011504, 0.00878337083036965, -0.007253352137699799, -0.008492060478511386, 0.011459115981740545, 0.002719223455117763, 0.013666203037460037, 0.0021523662808247733, -0.002038054032122352, 0.0038479841070809583, -0.004134410541991028, -0.00926357035704523, -0.00964096612909747, 0.0014501294846505054, -0.013710625349670174, -0.009855783299376463, 0.0075474301678360705, 0.0088600712023896, -0.008518601757574048, -0.006759828014788962, 0.007154328044683238, 0.006968817620696496, 0.002708404221139729, 0.00435023279378204, -0.00619158700114232, 0.007119918689547183, 0.0015096121004889674, 0.013029144185606937, 0.006780405202929409, 0.005809247051718172, 0.0051071143069284074, 0.005736592674321631, -0.004865089183578982, -0.010506261424577263, -0.013202259043681674, -0.013390732440020264, 0.010080572335912842, -0.004283472372198361, -0.006393192443114985, -0.002470774509394312, -0.005658854703435839, -0.0015490613535835858, 0.010502457186783713, -0.0036565398657951065, -0.001666872557250344, 0.0125678060566825, 0.008337655550718321, 0.004473033862278894, 0.0050417588328251, 0.008944361707780766, 0.012069115912569033, 0.0052686226065879645, 0.009170734929841733, 0.006492686883728387, 0.01168282804847368, -0.0066008960162516235, -0.006006488888340923, -0.000743647213269881, 0.009236055677465455, -0.006624860533983591, 0.010837809906917016, 0.004048059641231802, 0.010898066767997698, -0.0016607857825750576, -0.01042926485029835, 0.007501295562093413, 0.0043879604510321316, -0.009163087846291808, 0.013868960901724113, 0.013533103573591937, -0.005125813598534474, 0.0122469712917723, -0.011717351138247453, 0.005116483577762792, 0.005562742589942149, 0.009635744735733533, 0.009346897465415976, -0.011265768015726194, -0.003317553816465936, -0.0024515156613326428, -0.004677401130562042, -0.007080436925253792, 0.013058400630131703, 0.0066872620094630955, 0.012578175885266071, 0.007209315588396086, 0.005591997768705482, 0.012323620602415342, 0.00732121891464389, -0.012378517625196294, 0.005020363417653069, 0.012778588482405692, -0.003620402878365461, -0.0130511879866512, -0.00047447299933433586, 0.008579414828357283, 0.00906706548361863, 0.003268108583073916, -0.00276194610253575, -0.013405349249104208, 0.00045931829312141197, -0.008796811099813546, 0.01066385671922577, 0.003401786209136392, -0.012319212489739701, 8.346020548957031e-05, -0.012923171710299022, 0.010974013503169965, -0.008381699461531025, -0.006220316280504286, -0.013231386253184922, 0.005337850498863642, 0.005504698938600834, 0.008319306703768977, -0.0015900738073707631, -0.00350107327725815, 0.008523035290656972, 0.012137084960492633, -0.0033235184548285894, -0.0046908246995824195, 0.0045071894347917165, 0.0026572117875639104, -0.014492665021986118, 0.013321351426846706, 0.013762373222548465, 0.0020870925703568907, 0.005023622468221714, 0.0037893420580671438, -0.013239588985129017, 0.0031493740990040527, 0.009323540930834102, -0.01183067240189423, 0.006850681039410235, 0.004408025029456992, 0.002103753854789154, -0.00560340209842858, -0.01096336528086009, 0.0017051847433669103, -0.013800621454829234, 0.0115985169066594, 0.002298478274938639, -0.0018603086958330023, 0.006084363536568371, -0.013550572235287568, -0.009298897600308463, 0.008411063084012828, -0.010972844523980983, -0.0012559246085241046, -0.006682925084953833, 0.004094152260828738, -0.008403026466114407, -0.006837609787639717, -0.0019077316863421873, 0.01187345932173204, -0.007254790195044871, -0.008115370164209455, 0.0047727778375959646, 0.0049182769225329225, -0.011584654621824057, 0.011731886602934767, -0.003491311691818051, 0.010661895794244345, -0.0067157778509638, -0.011239373569319136, -0.013329905634770725, -0.010508003455147623, -0.014030927593759488, -0.013712853635412506, 0.011928439624505087, 0.008798203771990766, -0.009231664958944815, -0.012519970803123275, 0.009335418330997812, -0.007123181179197714, -0.010013991068676781, -0.010359562651734914, -0.0067777847937773575, 0.009477800271787485, -0.007818300206129038, 0.005387841913476756, -0.0013845074543880089, 0.004994902940951889, -0.0016516754340910756, 0.011189805438957366, 0.002874607990488272, -0.002289329447594945, -0.006074821886914889, -0.012341312339966147, 0.008315760861606463, 0.0024857293169876136, -0.012247553485813403, -0.005501247225601676, -0.0061232563747330325, 0.013575292858559913, 0.0018558338493246571, 0.005439310703126588, 0.003424749860427528, -0.006660957791237312, -0.010333361870849564, -0.0008031773946544668, -0.009977800027417492, 0.003829925784160853, -0.006364469567112766, -0.0036166132958424624, 0.0014905409624428655, 0.013190188301002027, -0.009581593405860227, -0.0031688707168410143, -0.00928746889595823, -0.011428027175064161, -0.011750764538122854, 0.0069986087408773785, 0.0035343674337966024, -0.003979459673315112, 0.009004714088057137, -0.008274906687364709, -0.012730755603437045, 0.0036189461424098895, 0.001230402693234074, 0.006961362305036669, 0.007429818228030593, -0.0043029854243799865, 0.006399336497198594, 0.0047738485346006925, 0.0077967311492101645, 0.00389563310977621, 0.004139299088474892, -0.004246273756015129, 0.001107482579845882, 0.008122236883021876, -0.012166852310837473, 5.2779412010670776e-05, 0.012002961491321958, -0.0045591111238395855, 0.005018929906563782, 0.004170310452899528, 0.0038194214283071965, 0.012574276740110024, 0.0021900067127311696, 0.002649485083546523, -0.01251748694253029, 0.01095025364963708, 0.005717168720558456, 0.009285582247098753, 0.0047997228940889515, -0.00732776541042142, 0.011856505644557947, 0.004384245494649105, 0.00700424123115053, 0.006714719690045071, 0.0029791437331951284, 0.006768447936142334, -0.010061018925849343, 0.008192184275100614, 0.011812383737345862, 0.005181507275053993, -0.008656648140237104, -0.0011932230089224782, 0.013551935752912707, -0.0037105506344890043, 0.012594481653184683, 0.00281188124553193, -0.012897663117118204, -0.0013706863151176894, 0.003922314896714208, -0.011138581936142526, -0.01077620352824234, -0.013340971812850676, -0.002237281089865818, 0.011644613509643896, 0.00293151888485864, -0.003115313139271362, -0.009114555611215044, 0.013525399182398508, 0.003377225395357126, -0.00673372844649006, 0.0034436256489294467, 0.00928717697950084, 0.009512067149997937, -0.0030674595750923507, 0.002589373098152283, 0.012573136875582607, 0.013128351348187102, 0.004529636780449527, -0.0024833139981050617, 0.001494307328972849, -0.0008139491227173377, 0.01340170409860423, -0.011815841328793205, -0.0010972770297896586, 0.015107163795935638, -0.01012968542594793, -0.00021444474444985785, 0.005738757780047756, 0.01382491139870849, 0.006731171663943539, -0.009240450055110658, 0.0043539224590702285, -0.007801033084239178, -0.013891142448494527, -0.0015634479740321784, -0.009741943492280742, -0.0015598646267288472, 0.012405263245746619, 0.0022742149750005986, 0.0009336926610440846, -0.0047053942801954666, 0.005998834680482857, 0.005584283295206413, 0.0031905732985287364, 0.00034164707374969395, -0.01247683546330901, 0.003992798419287848, -0.003010346291753063, 0.007435446023602303, 0.009754684386685347, 0.00044497910688368693, 0.009759480016157668, -0.01098004161849369, -0.006132528607794807, -0.003514575337748299, -0.0006567449772379681, 0.013190930228394685, -0.004351536258329628, 0.006180464986484665, 0.010084331520654261, 0.003690948450133292, 0.0007952771319062078, -0.0004286841275416021, 0.002739734618207827, -0.005043422766748696, 0.0020685846146498697, 0.0050963772444775, 0.013314942567484837, 0.003675277588233428, -0.013863249656799798, -0.005566025161042785, 0.009713035794599487, -0.00695262464605487, -0.011595617493583562, -0.0076918832963289345, 0.0048123667736872395, -0.003255600796746264, 0.003554253246243975, -0.010838261516754885, -0.008506615849480759, 0.012110761498631748, -0.007283111446635639, 0.001899453892507959, 0.013373763397943744, 0.009436260113016468, 0.005532596894948993, -0.009990384783841032, 0.01017917123452525, 0.009300977975763666, 0.012434732112345479, 0.013209748543355512, 0.007271716227811003, 0.006768844013734022, -0.0056841430467144795, -0.009291979908107378, -0.011433188010041674, -0.005850927160929337, 0.005361291395562011, 0.007986891553055523, 0.011676743622684492, -0.012492434773352185, -0.0060753971173634095, 0.004114633048080805, -0.006080492725475816, 0.0018258572540794512, -0.00732757384490068, 0.0073903260020906246, -0.004435698812088596, 0.001825967852278401, 0.011082796760109533, 0.0003475550160278958, -0.01127150243807129, -0.007867224564836623, 0.0017711098013655066, 0.0017517924326962652, 0.006865078180904761, -0.006256122484527022, -0.011551968157476243, -0.0008549077229056389, 0.0013599109395255875, 0.009598216702652375, 0.010126566624902867, 0.001928979555660987, -0.006782432642569143, -0.009625777058981785, 0.008782436837479925, 0.012596053978369754, -0.0034252154976346875, 0.009247529498903412, -0.01097986751960153, -0.013123770492305455, 0.0012007244257339596, -0.01117794699205983, 0.004408167197690826, -0.006139820391545432, 0.005746500402628825, 0.005963603099512187, -0.0007181598962221279, 0.00693444789323171, 0.002724574066591806, -0.012065923302370938, -0.005023009073681958, -0.00012688141475651686, -0.010015559594965183, 0.008631972490148484, -0.004699828828111351, -0.010664265267878156, 0.012412323846588422, 0.01172430053696403, -0.008242870543880395, 0.0028451160515183694, 0.013172272566772506, 0.009491688317698484, 0.010507963039516876, -0.010978705883868844, -0.010617822270024252, 0.009313624482678856, 0.0032857568010069287, -0.008973157890976123, 0.013680736239529605, 0.013509143911071681, -0.01215119104948928, 0.01218546395270253, -0.011474758821523766, 0.005240738368019729, 0.013205983297012763, -0.010542764228845288, 0.0026894409894939763, 0.008233602805250416, 0.009046845414674756, -0.000879050089796344, -0.01304780260686013, -0.00627619263178736, -0.004391911050668834, -0.005405234077532511, -0.014329105199927335, -0.004273523240144106, 0.003461016330591778, -0.009833756954660634, -0.0016948315949722836, -0.012675370496377694, -0.0024201545641811435, -0.0046268858689936234, -0.002888079062623228, -0.0059363066030085985, 0.002495140502241166, 0.0007595828429014073, 0.01327214849788107, -0.005795844411914137, -0.012524125101549127, 0.0026815248960065344, 0.008742435774887588, -0.00610914985887562, -0.010233889841884641, -0.003010668552904589, -0.0029589037529014557, 0.0066061800171100925, -0.003936117001948976, -0.002921824536299736, 0.004911889984324818, -0.0034934278405416262, -0.007931764156204493, -0.009791621964547678, 0.0073190187610060525, 0.0032890841410385197, -0.011108108666171602, 0.005474424536134269, -0.012583911045670167, -0.004977813438468959, -0.008426895235739076, -0.011031652016824413, -0.0005025511710375392, 0.0064302821033142814, -0.003802996379610759, -0.004974777890170996, -0.0055779768528771475, -0.012022980291117405, 0.0049331188563590195, -0.005346414988065803, -0.0016701741987306179, -0.008422698001262913, 0.0020250654064155114, 0.0090200054803107, -0.0005790603684561993, 0.01233053774067565, 0.0043240653624742375, -0.012107015011877343, -0.01326870970134266, -0.004486503424636546, 0.0007624586294670816, -0.001143553836155306, 0.006938095887960832, -0.0024671022637296775, -0.013287904415654335, -0.0008267057228326173, -0.010226063564735356, -0.005689164244481546, -0.008620586189971146, -0.002372307329170393, 0.008479148484181052, 0.00029476578764817807, 0.004635676486317346, -0.010965872959937381, -0.00790785541230193, 0.003440347573203112, -0.00839157307331016, 0.004450532388809138, -0.004999737746980839, -0.012941837506095297, -0.0015719730608951803, 0.006446935919493949, -0.006898023093062517, -0.0009359414953832443, 0.0018512735080790292, -0.003768716096125942, -0.0009357608901024836, 0.010201198095980763, -0.002883433316124244, 0.006228428310682352, 0.004985508812309667, 0.012861490825791586, 0.0002616140883249917, -0.001793107480963021, 0.014583756001249816, 0.00013199351518516358, -0.012190916577265022, 0.005874046329483922, 0.0010861154316128949, 0.008182862576662415, 0.001318229864520205, -0.001819463604359313, -0.0034252193208740072, 0.002921032065685184, 0.0002763167981876686, -0.011433828602064223, -0.005615355410064311, 0.013785929300232067, 0.0032953735173531003, 0.004484319741548999, 0.013657506293630241, 0.00042076262731578903, -0.0014050652207799772, -0.009988043657448585, -0.0037279734669924754, -0.001756987413859127, 0.008104429009574513, -0.002881085111742682, 0.004688974026010776, 0.011127089220538613, 0.012488955947987141, 0.010369603119575034, 0.003918211549602638, 0.011928938462945326, -0.010844427642413595, 0.010777741224085815, -0.008098035161704497, 0.0077597296074497545, -0.008172370350118616, -7.718173989786871e-05, 0.013327337241471717, -0.0076338088886651525, 0.014546902954178521, -0.007782646823109136, 0.004898834344721723, -0.0006990364198409463, -0.003911912574957606, 0.012101513915318307, -0.004575101959482661, 0.010320324235696031, 0.0015254454393944404, 0.0056266036050058215, -0.012449204807856131, -0.0037117927729636655, -0.010001277390664025, -0.01014620192568064, -0.004258791958132554, 0.0005259234517489801, -0.010077221320072221, 0.0045463665866842, -0.005802773769475073, 0.010033178340616912, 0.0034176651363390254, 0.005232819272606111, 0.001560161857109473, -0.0010165164346733861, 0.01368981431756033, -0.014997231357352796, -0.005007987656795289, -0.010078599154594551, -0.0008209512892901762, -0.013332979843565957, 0.007891580764295436, 0.011460959337946993, -0.007132818195827788, -5.857678514994808e-05, 0.008635804316496933, 0.013435349927986024, -0.014365231185023917, -0.007781696674870357, 0.006450207175073904, -0.010693195105316126, 0.0122876999599778, -0.008937089086027833, 0.002294801640793651, -0.011961533380246574, 0.01416205302397391, 0.011779416512124804, -0.010319410447445911, 0.0041941012563763294, 0.0033859039516279813, 0.007801937216790809, -0.0021295405889507897, -0.003480735589981091, -0.01257644460528265, 0.005733975391888581, -0.006755742491981572, -0.01389425568981414, 0.012115975590771308, 0.004210073145997756, -0.005837761487462795, -0.010459655171951247, -0.011677308350813632, 0.004495033172626118, 0.0016529614106022173, 0.010886854803152556, 0.011848281387240306, -0.0010540405066655084, 0.012828071407941441, -0.002176875322019764, 0.0030360215827939653, -0.006408575203431193, -0.012859044705938124, 0.0008563072974140259, 0.007977279612735954, 0.005772422042769016, 0.007253665589011953, -0.007598934146225823, 0.0010335142662755907, 0.0021103523226941165, -0.009693754399178217, 0.002353827074966078, -0.001840269532779837, -0.004593946231608028, 0.003613611641452628, -0.013958142373410209, 0.007298120350638447, -0.00869837114852988, 0.013605212147144734, -0.00023555610283339392, 0.0024728361480313207, 0.0045698847955103995, -0.00021624612106280137, 0.0022233190339261853, 0.003970229481801788, -0.012643835543078711, 0.008057025388132922, -0.0021772962854669058, 0.0026695708723551183, -0.008661850901278386, 0.012746147916177555, 0.0120946096359664, -0.012473395818084246, -0.007205490424112301, 0.011750942977006849, -0.011650073261668812, 0.009058940043753301, 0.0018646688629804077, -0.007222555793495737, 0.0112581051229042, 0.0021117222721942067, 0.009602859259494197, -0.01270837223303907, 0.005410926367747457, -0.0003691225388016129, 0.0074432297221710955, 0.0007991774263238903, 0.0002585663897569121, -0.0030582941976331434, -0.007725495386056885, 0.013812496187553371, -0.002055002685756791, 0.005442075564273113, 0.000953738175667689, 0.012648294752387866, 0.010746967597717318, -0.005241347444657756, -0.0027967940281041167, -0.012876865680729816, 0.008534164337258551, -0.008208659503949115, -0.004838383146608011, -0.0023113890969390593, -0.004991578763654716, -0.0032498623712494197, 0.002122057067763667, 0.005993440052780016, 0.005098766716088861, -0.0015148503669292614, 0.010443848036666903, 0.012913404140438674, -0.005829998519253765, 0.0037780606919575565, 0.010102254392929473, -0.008980049827187912, 0.013055141571748238, 0.0004183351670590657, -0.012564840824944074, -0.009805162211235187, 0.007506431536954418, 0.012297540226152924, -0.013971238403748466, -0.0075113653667829555, 0.002016762702334391, -0.01203977078366429, 0.0005293971748775943, -0.006005932392441939, -0.007573526624457618, 0.006625216063937522, 0.01395185398359412, 0.0025323889843511214, 0.0022398108830982096, -0.004249479047810598, 0.006740645168677202, 0.003185149014117944, -0.013666436066325569, 0.009503875520482912, -0.009707674089624896, 0.0008960365415643593, -0.0009572492401949341, -0.011280298039769042, 0.012879806094164893, 0.007250168936115108, -0.006606355397133874, -0.011629348157844664, -0.0105417441871632, -0.0017519069607800806, 0.01233516149902652, -0.0013935434442067464, -0.00936889644276327, 0.01258060115882936, -0.005601568692458621, 0.003621688735216738, -0.0007471526977925819], "bias": [0.005926220907842674, 0.005911886690671889, -0.0002429341777898011, -0.017803381913780482, 0.005795615765760821, -0.0008991480273606372, -0.005234959668211839, -0.012312443540935213, 9.300358767193593e-05, -0.008542428753815489, -0.001460893217480086, -0.004494754407476555, -0.002381366069128489, 0.008650306605735337, -0.0006550303934579045, -0.00012164948517176279, -0.003236741353627883, -0.00557883454856153, 0.0011845843646171117, 0.007359203963162055, 0.0003213921409378373, -0.009962679233444216, 0.007588593569916499, -0.007153414493679679, -0.00928188469735847, 0.001496098124269516, -0.013685960317299635, 0.009060308840638884, -0.0023855389042422162, 0.013826734235978709, 0.0014787799007521683, 0.007067178027113582], "is_sine": true, "in": 32, "out": 32}, {"weight": [-0.0009087374833394863, -0.006310916583524315, -0.006087196641882797, -0.004535455735471188, 0.010852404966940565, -0.0002453826952960514, -0.014448881763328297, -0.01104569977073709, -0.0022761246756636774, -0.012678598187452827, -0.005386494555647022, -0.005241280691699984, 0.010332860841613594, 0.0028455982606140425, 0.013443026967513351, -0.0027904595607266595, -0.014904975818159721, -0.011659637973410394, 0.003347462391680694, 0.0012008708477094223, 0.012790976811885884, 0.005993409869825092, 0.00803155960580012, 0.004730886969751217, 0.0004082394174373683, -0.005604216268816752, -0.001786817020513503, 0.0022110739769096196, 0.0005772471971547218, 0.012028649962073125, -0.00828943330747218, -0.008006144281056964, 0.005183953833019613, 0.008731770389340617, 0.005221389991875967, 0.0014610409426426482, -0.005093492170440775, -0.0015868672121632065, 0.0033404946217680765, -0.013262499890256657, -0.008006226647502815, 0.002148326608152157, -0.014248866741771268, 0.009738591905409502, -0.013119389051215605, -0.006864830229589735, -0.002636132818255954, -0.010687882933347177, 0.005649317767172934, -0.006840511909138833, -0.004806642298475807, 0.011153932531676557, -0.010593025574782835, 0.008247021327588581, 0.010953938993143383, -0.010309936955673484, -0.006136144421550398, -0.011623696699224728, -0.013110319474160522, 0.013421461996688939, -0.007280963030682909, -0.002975768373267802, -0.007742644785865201, -0.011204479175471863, -0.007306899021719546, 0.003229816902523375, 0.010710334638367342, -0.00978765803213164, 0.004102007575145266, 0.001828900710800007, 0.012169799758550514, -0.005182172542822514, 0.010796703662637274, -0.010325072479391644, -0.003714863215981064, 0.011738427549141558, 0.003315798480543337, 0.0020018764267682432, 0.010471629175747055, 0.0035334514995610635, -0.0031373798163256217, 0.008577517635126621, -0.00037909628586608687, -0.003240614992535714, 0.010724873843306509, -0.008411215418906319, 0.007302589452549722, -0.0005917474223836609, 0.011331842567447124, 0.0020051712841487285, 0.011117740651949065, 0.006909364823467827, 0.012364952758990586, 0.013722255139061487, -0.0065774328692844285, 0.007182304986308393, 0.013751495915359947, -0.010097745387150341, 0.00012809046391545185, 0.008788253413346417, 0.012793986740973252, -0.011794773435149687, 0.001919793331866952, 0.002450304651646542, 0.013581516982611938, -0.011375431466127175, 0.0008941034036274403, -0.008217306686206733, -0.017189845065013153, 0.013629034528182427, 0.0013186390553734063, 0.01268679876620808, 0.00046563685044193043, 0.006986012351520851, -0.006374462106717197, -0.012287280901482907, -0.012788682964106629, -0.008380595425235764, 0.013382136860531213, -0.013269536906526134, -0.014360691881462568, 0.010399155075502764, 0.004845050137001637, -0.007575652087968265, -0.00946170226509988, -0.010115278206762477, 0.010129737031122148, 0.008842934731005512, 0.013100143736269027, 0.0035173552439456356, -0.01133343208566347, -0.005237049599420926, -0.013011140037246398, 0.0015256379234082787, 0.008535730484937325, -0.012962005322279344, 0.00073388019872886, -0.0021991667719663413, -0.013736770359404175, 0.010212029234888417, 0.011783496174862863, -0.0121514418387406, -0.0032932201224213278, 0.009459424779232917, -0.0008880867633008955, 0.0108234404366845, -0.004575243522737325, 0.0031118934457577963, 0.012016096669411051, -0.008968838881381794, -0.00016438092705809928, 0.013888205582955802, 0.0011120538998433294, -0.006988685788111332, 0.004797464854377834, -0.013354659540324349, 0.003249134362660544, 0.004340356711830596, 0.006274940723811485, 0.013802327819891533, 0.001776321937567644, -0.0032645332298234754, -0.008834062434127253, -0.004307741156814322, -5.457241114843681e-05, 0.0025069724558929645, -0.010211062918245473, -0.007562741987445206, -0.0006358110109535379, -0.006847019045808007, 0.00826155243234058, -0.012699026181795268, -0.0006962161770360442, 0.003477152279677264, -0.002407469613282151, -0.006263296250850109, 0.002674899078381223, 0.011517109640422659, 0.010401184673439456, -0.007304444463564468, -0.000687463466722385, -0.007742314519873274, 0.007701232271317677, -0.010888421587628469, -0.00623120504619376, 0.00875596786154297, 0.009187508342728724, 0.010840380335521418, 0.013997460034532576, 0.002289700413594087, -0.0036292400523228047, -0.003895920140758701, -0.0023353038138355475, 0.006490223900738999, -0.013609990133908784, 0.004923956871831385, -0.008590819931093634, 0.00175821622140841, -0.012316302471157298, 0.01119644578051174, 0.007605559497842486, 0.008479447308463891, -0.000209766891091819, 0.006913165803313515, -0.011075492802857093, 0.007258969209446521, 0.012332893528479029, -0.004841817757135192, -0.004311607661612812, -0.013021604222523664, -0.009735270295391295, 9.20146053956028e-05, 0.0020620503424261657, 0.013600951334633184, 0.005800929887539315, -0.009245319857996311, -0.006446247373611754, -0.011869824205954754, -0.006858540783396863, -0.011197079850522356, -0.00934175851781054, -0.006397743425259438, 0.002641178495767158, 0.01125130689293928, -0.007795537995478373, -0.011622500461245426, -0.011699510677526023, 0.00021909206285476403, 0.01444708192248758, -0.0016176860861997538, -0.004369824449248752, 0.010502919345095904, 0.012460174057296299, -0.013261183568035205, 0.01131915947924773, 0.012475474704092292, 0.0036788592112382006, 0.014685060878019084, -0.0013459607823298658, 0.008744277987894913, -0.004964381328410053, -0.016656873003116485, 0.0028878714556571507, 0.008748399822573801, -0.013697433817519105, 0.008479998298548922, -0.0030169841625146817, 0.00016152912702185264, -0.002606747129369566, -0.008234116263915039, 0.014436723388698487, -0.009895946257313139, 0.005022307484291635, -0.008231927797441588, -0.010468670809910027, 0.005247908654249286, -0.008152004275221022, -0.00911387740060833, -0.013535467828719252, -0.009437598532255906, 0.0037574777958299267, 0.002852210414766022, -0.009530629657952648, 0.006441859861647965, -0.005921461257829243, -0.012532398075646796, -0.010164914421328055, -0.003019773660815133, 0.0007345792665150695, -0.00787156210617525, -0.013623144454035218, -0.012308515201534333, 0.00889415077570367, 0.0030183751926859586, 0.0012292498252660545, 0.004652404527516117, -0.001572177124087118, -0.005958154514011716, 0.0003839468648830569, -0.008546723440027973, 0.0008150178343355201, 0.0013806021700846912, -0.010102122139574237, -0.0014894709784120253, -0.001554628064400508, -0.003930598618538665, 0.0023447617033130214, -0.010901512425454125, 0.0021614991935833554, -0.001561845707593234, -0.008972719842057561, 0.0032548211877594063, 0.00822910260648816, 0.006573532536441643, 0.011700695945588603, -0.0011015781691051697, -0.0035626963071420537, -0.011040552634935412, -0.007582868051695759, 0.00219317462915414, -0.01498199933333862, 0.011082982338572257, -0.008621107492418418, 0.008874349998316355, 0.012840439181942201, 0.005616561756653991, -0.010621886051743789, 0.0017060863850727893, -0.0034558099202630127, -0.005812304816711797, -0.012202472977606134, -0.007423925707138415, 0.0014719059567754027, -0.011823884354627523, 0.007666993897193471, 0.01270212045791748, -0.0032357875310009866, 0.0038160771057880786, -0.00855832567062391, 0.004930730121503505, 0.0006808139764718965, -0.0016729444217125978, 0.0016929146278597592, -0.007983927733642615, 0.010164735453744815, -0.0014176725232564293, -0.01377629933923622, 0.003211983002592456, -0.006671699914029717, -0.003480883771060943, 0.010455117181261919, -0.013727327442657616, 0.006359790506342156, 0.0009808654243344966, -0.0025427033762646786, -0.00756360513204648, 0.006613179595303154, 0.007897006431271702, -0.009529605795273103, 0.011419252212567468, -0.006689288225515518, 0.01172958645811258, 0.0005160893954290852, -0.011441237815602594, 0.0017187967423868931, -0.005929582861372044, -0.007575969531415206, 0.011263723609195826, 0.01073183223201145, -0.011505071410716964, 0.010747563874002058, -0.010408837100872138, -0.0042149924787579585, 0.011833215019174665, 0.0007038622893186349, -0.01346793176859722, 0.008858464639237966, -0.007812573773309699, -0.0025780230090291178, 0.013536128202717743, 0.007831916917697381, -0.01128182062540251, -0.0064283372486205175, -0.014091452354048127, -0.0006882876081721845, -0.0034678397969164277, -0.0002536026691783513, -0.007479719416125016, -0.010729401241179928, 0.004810295221435076, 0.0032672231879550717, -0.007259481414368928, -0.005349730911479835, 0.0078870318137685, 0.0033832294837073283, -0.012944803281115198, -0.005699328260848158, -0.007031697510113071, -0.008057520066924067, 0.0009674358799414476, -0.0047666609882200586, -0.012413161159688811, -0.012605574987915476, -0.006817605464102892, -0.00839015005477618, -0.006086094182305728, 0.009615567190007087, 0.006968079444171797, -0.011284530398994526, -0.009631316248292507, -0.0008861662171155358, -0.00682429066502553, 0.007892879083368614, 0.007583440828306842, 0.011747578697394892, -0.012044436146965523, -0.0030472660243267558, 0.005575735579590532, 0.0008673919318568156, 0.012511756343827245, 0.0011163812565499261, 0.0050092571136179116, 0.006744004653314555, 0.003001927319198833, -0.010943278451175147, 0.010206712952517573, 0.0067063249813393766, -0.008697571451460861, -0.008808312709146383, 0.005781795866521464, 0.013472945729939241, -0.0037134621157505453, 0.003382313812189641, 0.0021996421749678526, -0.003811604840605082, -0.012549622251898596, 0.007587105179281899, -0.0015733148404838753, -0.004171333259662035, 0.014151557881131111, 0.0030437138310710097, 8.031712313884619e-05, -0.004611152470853462, -0.008049857289421423, -0.004932304631565418, 0.012739049706643328, -0.011116368730204692, 0.011413938933691825, -0.0038282523310022303, -0.0029690114793681126, 0.002938603036419208, 0.004360019832031424, -0.010055661325803475, -0.009718325746550294, -0.011687813240725441, -0.0030842557681071705, -0.003822285450545983, 0.0015985677584816251, 0.012138219756776833, 0.0027333568468740394, 0.008722686639663278, 0.009780355079706649, -0.00937897625476281, 0.008592415281786227, -0.012174115389885744, 0.01085024072736037, 0.008711793650563696, -0.007655728119687068, 0.012131431937212693, -0.005932349125719022, -0.0009489109120817787, 0.008127731603424402, -0.011111807744769822, -0.007006264387944012, 0.0007808123576736958, -0.006650855219863091, -0.0035405774297070725, 0.002533153107051529, -0.008429381488576292, -0.012467667287911604, -0.011377928399714838, 0.0020598530761838075, -0.012154955697560796, 0.014078560821928298, -0.00393577027568144, 0.0013940050408483063, 0.003972134096812561, -0.0038429426058569976, -0.007356991344342689, -0.009588762451362406, 0.0036680542122034033, 0.01278180132912661, -0.002656856782519034, 0.013490851004329911, -0.005433579542111583, 0.006468600502127911, -0.0011930344083895907, -0.00784969742950265, -0.0034161705899465114, -0.011928048864793678, 0.006155625897129646, 0.004457626770248785, -0.002843327948053858, -0.0031250715814346735, -0.010761650601639338, 0.007817491947783027, 0.0038031728411211546, 0.014761909886289351, 0.007432170330901956, 0.002083643246426489, -0.012362790548650155, -0.0093540724306335, -0.0026533516010705848, -0.011129018838839296, 0.008952502386794601, 0.012046672229048934, 0.010639096005038205, 0.01315863118502155, -1.2546846137606852e-05, 0.006484115436616067, -0.006210028367575048, 0.0027881473730323445, -0.0021458000114031196, -0.00916741241568898, -0.003901764722288216, -0.003999706764275058, 0.008381339010022923, -0.0043340146272965886, 0.003133209663981929, 0.0011310217790986945, -0.005866535125915172, 0.011252080302548293, 0.01127434919683734, 0.0013169100794079619, 0.010064113615184405, 0.011115399291276739, 0.006616452326053539, -0.00867093606194073, 0.0013095005920333675, -0.0031297028323945754, 0.004081268576053361, -0.006767701775180354, 0.005408184740268565, -0.005812446184775343, -0.007147407289668226, 0.009120761053088799, 0.010322632520613025, 0.001757834134412582, 0.005409887578746414, 0.0012533803468792594, -0.007507803606018692, 3.730730398958961e-05, -0.0026878016093872495, -0.010574471512148815, -0.009929479167062357, 0.009813604699756335, 0.007727163407521336, -0.009353669874593316, 0.009938035494246041, 0.003428125984836314, -0.0022007631384842684, 0.012524326702047364, -0.012773464328965646, 0.00980430098600342, 0.006591231592679602, -0.0023517263707690463, 0.0035342337607883537, -0.002169845028140328, -0.0116840684740421, -0.0012350545057296942, 0.009201361068714511, -0.0012759134608674243, 0.009992481532616762, -0.002893438303451128, 0.006015664007337226, 0.007314177765980885, -0.004305802341104325, 0.012513008780248849, -0.010951793526819822, -6.461938155989938e-05, 0.0015952103321581193, -0.013997782922162924, 0.012100679922343961, -0.003150965657662963, 0.012882900808073477, -0.008761072883485254, 0.009855864867046786, -0.013982630515990026, -0.0020752983101523185, 0.00694094908418955, -0.010597921387992672, -0.011348740133270953, 0.0018075200997350938, -0.0004519056954462732, -0.008974333744773742, -0.010935013770993464, -0.0014878605821419093, 0.009613800019364451, -0.00818451384573119, 0.009657010521701375, -0.0018256831559043541, 0.004671785730370347, 0.007398785839629859, 0.009523360203332236, 0.010388781896690732, -0.002195733218131005, -0.013051253486539101, -0.009752579186052567, -0.009230570892596872, -0.006258644380132599, -0.0004275033182840565, -0.00036782932986064544, 0.0017963588858800556, 0.01084300694426736, 0.010044318304732926, -0.005815280005869649, 0.0002453514104890113, 0.002359093168598907, 0.0015745346729142357, -0.003923120770092844, -0.0015588677005811805, -0.003958440668752022, 0.007630036220222437, 0.0020288680501928213, 0.008040615652525118, -0.00506320960478883, -0.004566364662763164, -0.010285192557017138, 1.0941653731186864e-06, -0.009781527644582124, 0.011661967393063898, -0.008263224220743562, 0.004578228544953044, 0.006991195316471723, -0.002350438664339935, -0.008411723805231714, -0.008404108608035685, 0.012846075485879098, -0.012514879780602018, -0.01174584063948296, 0.004886429699224803, -0.011290868110452249, 0.0013985078458419735, -0.005273650309831809, 0.006331909269375465, -0.004353029615759126, -0.005763548450179878, 0.011374940107969576, -0.004666679306711966, -0.011315674687131148, 0.004467467835072015, 0.007420574903094973, 0.005245247610069934, -0.004222739316689795, 0.005851178799275219, -0.010978526288610697, -0.013607947048202758, -0.005735492483563118, 0.008868344937412462, -0.011519965587414523, 0.0008705584209906752, -0.0035393389941187283, 0.0027378406115347413, -0.007341136658674243, 0.01194411285946252, 0.010400953522088644, 0.008229642741325075, 0.009891935095444046, 0.009972125210971603, 0.0016006251018844569, -0.0059603965835190375, -0.009110596107815025, -0.0021639456316376146, -0.006334855319422515, -0.011085691278472202, -0.01232858434001136, 0.014082093827868208, 0.0007015560739877885, -0.005677910075112653, 0.011502433373292579, -0.00529599103667942, 0.008602377810816455, -0.005824665028178311, -0.0005380541848972558, -0.008837455073472784, -0.0038220315851442686, -0.012572060716192933, -0.0023947157213723546, -0.006073146286164019, -0.00021274281859227857, 0.011025202420326438, -0.011137750342328813, -0.007413625845059195, -0.01163501429495967, 0.004660974019641317, -0.0013399612351111998, 0.014497050981323038, 0.012551352195500297, 0.003432513824591628, -0.0009627826806346038, -0.011044658447206247, -0.00969450641690003, 0.0116478951227539, 0.0027115014315749367, 0.0003641626602204346, 0.012263600049578572, -0.007145270279511231, -0.002457548494192542, 0.00866191602488015, -6.804858948917206e-07, 0.010044963911956693, -0.010994606583989666, -0.012403389147115274, -0.003292223069312926, -0.005872440067009568, -0.00265957724229245, -0.009107421132521687, -0.009460206432580241, 0.013024681125396037, -0.012767886640450197, 0.011867077659090022, -0.011218020412600388, -0.006538484086925273, 0.0005070602413483317, -0.014524937652806222, -0.006081734756570385, 0.01259978831393103, 0.002649024049732961, -0.013938109795623746, -0.01190436059337752, 0.007954394022672525, -0.007218349564106847, -0.013277830377505353, -0.00391781499922051, -0.004908635059149925, 0.014315291234530788, -0.00809005609069873, 0.003462104789458122, 0.011310643248839172, -0.014479105352083693, -0.006135840540905142, 0.008035355288170334, -0.0070666718541879435, 0.011703141230490927, 0.002410892183162458, -0.011504598990121467, -0.004775150663235996, -0.007426185282053393, 0.00997039516403462, -0.011005382143563495, -0.003815991684495853, 0.007742009271570972, -0.009903193659182893, 0.0008867684247918999, -0.00651800531499651, -0.010155727073801373, -0.0012568771489233368, -0.006094503465400256, -0.01403443765836928, -0.014665572688932206, -0.008569993043113582, -0.006341623308138969, -0.0027282422659430944, -0.01111997406334055, 0.000563775280079197, -0.010892897151216446, -0.01011441801472894, 0.0008487216190293528, -0.004394818976485702, -0.0054107873240646824, -0.014544904250836307, 0.012497620931251507, -0.007496142059538607, 0.0055867306251604675, 0.003928233170692811, 0.005359885230266718, 0.0014188313599818143, -0.014412013207602171, -0.0023062561527080134, -0.0018744549630452024, -0.011734603423110756, -0.004050609559721111, 0.010241949697072093, -0.0050630641309664, 0.0044086714098890605, -0.011347301939504397, 0.010842528465782387, 0.007362814094311092, 0.007254018707412016, -0.01258682764911184, 0.003756763643465089, 0.012001494502611284, 0.0015247037105038713, -0.0010662276391298576, -0.012720676329698553, -0.005052132723313057, 0.0068393659466215485, 0.0013108794678951055, 0.011519016147843996, -0.007770848641167836, -0.014870563971265547, 0.010320729538694465, -0.009780762917217285, -0.008777205169879851, 0.003780416040953324, 0.00029062488940098365, 0.004502269649907764, -0.00858696158116131, -0.00740543076173397, -0.011426952549550607, 0.0032457997399925717, -0.0016635046484535735, -0.01161739123321797, 0.00011115805547150068, -0.005212355447433874, -0.011792542389695643, 0.008796927626191494, -0.004381500900384443, 0.00442409382580971, 0.0034774241686726256, -0.002546185332480257, 0.009713454495014285, -0.012259953579589374, 0.009986910269754973, 0.005436209780744259, 0.005456987366652654, -0.004663240476052334, -0.005847690616580275, 0.01110184256284113, 0.007691629475681074, 0.014472931631641385, 0.00024993454289183077, -0.0044753615572918175, -0.004815042306954925, -0.011276769358675925, 0.008209750042421199, -0.0011469573292541217, 0.00722200114452968, 0.013923774503938318, 0.0027887117532627848, 0.003499686986279728, 0.013869969510579503, -0.013008910668726356, 0.007106381738017665, -0.0020495633418488616, -0.00123674609365562, -0.00912073587687452, -0.011008695105169943, 0.005595438679714612, -0.0071852316921968504, -0.008161545052626552, 0.007692611243151589, -0.010187714549634425, -0.004926706948926903, -0.014761339682648778, 0.006452670427715973, 0.001418577046195704, -0.0032304864242642924, -0.012262688634439032, 0.014857129551892593, 0.0038030809828029054, -0.0023244909459152257, -0.0018389865306816286, -0.005968956685900782, 0.012182235497162026, 0.00142811050991886, 0.002780812662190487, -0.0003967460483224074, 0.006034393498274281, -0.0034876927482063664, -0.011708852186781221, -0.01347024134860877, -0.006485892234886912, 0.0009722415184174334, -0.012608201751207294, -0.007634629757468685, -0.011207449452729123, -0.0071139692490601245, -0.0034336685091685883, -0.007959564988325245, 0.00776877330550448, -0.013094787199692537, -0.0012650225443688135, 0.006500666710138867, 0.005478465033831871, -0.00909441159208096, 0.00010812023465648786, -0.011817966175900705, 0.00041405424833726006, 0.0004716788436277924, -0.01067978990236418, -0.01463293914713984, -0.01267647206687747, 0.007638981830933026, 0.006064010736986039, -0.0013124046923549961, 0.00783427600707456, -0.007283914352738837, 0.010181346174811581, 0.008818316887542001, 0.0009680079123937302, 0.007733287744732911, 0.009965643238809462, 0.005211954228146438, 0.004272004798299336, 0.004692250137811563, 0.0037147042753744156, -0.010915030147845136, -0.01103889581216171, 0.010775138342730814, -0.009147261043333462, 0.005116070062981559, -0.014201082145415383, 0.010467868011667382, 0.008832404661981225, -0.0005200819004824967, 0.0010460404021826759, -0.0015026260609837404, 0.0038539081065946386, -0.003766439139236575, 0.0097120573166621, 0.0060778031376892494, -0.009968924082806568, 0.012048555762660923, -0.006973058301089179, -0.012713686951647221, -0.013530861872949737, 0.003393471123413698, -0.00815437230986268, -0.007511917868310426, -0.0012527874458197101, 0.010934617460322735, 0.012207284569975494, 0.0014100281830145736, -0.009477838263311595, 0.004980411691422999, 0.001129433046620155, -0.0044239042263459006, -0.009120102237772442, 0.010834264421193798, -0.005270761704647539, 0.0020786142679393624, 0.011122128371489506, 0.0022797561080279845, 0.0015667709133248195, -6.451682975302333e-05, -0.012102336926033838, -0.012462831957381317, 0.010652549474614251, 0.010205585814945285, 0.009355870019729835, -0.004213369029451407, -0.013551782597914308, 0.0023145288092912292, -0.00557685734644523, -0.0020634891362851593, -0.008434433164568194, 0.01218535414521628, -0.002072770197459715, -0.0004388808867741866, 0.01106656256439446, 0.004192062729849988, 0.009055485854115341, -0.0036075569436748293, -0.005007821879428571, 0.008699648992785889, 0.01214553591568595, 0.015971376659317842, 0.014388587554790321, 0.0124042559373253, 0.013925695272434086, 0.012059780969975323, 0.014356268057020418, -0.00685072803340832, 0.0004504730892602107, 0.00677204944930843, 0.00423630613731585, -0.010090378311306597, -0.0056233732456115225, 0.006096105709576658, 0.007781419776339505, -0.005522683879240414, -0.0018794821067885025, -0.0003153688182812815, -0.012826352072859263, -0.009263082401488756, -0.0013090106152654644, 0.012845802663684396, -0.005863168542176133, 0.005481841403005021, 0.0005392689055184186, -0.011828301807507779, 0.00019016682403809985, -0.0005579615487921812, 0.0033373818066783833, 0.0029076653072033914, -0.005777517150137211, 0.011493427130971555, 0.006262216143256615, 0.00795315778715936, -0.013861089617246558, -0.0034617175559271034, -0.01074355951377226, -0.012672659660976904, 0.012617371579613523, -0.00821852485607711, 0.0016421513212281742, -0.008738175256764881, -0.003700104879196637, 0.009893210861950105, -0.012394795733236656, 0.007910159014243578, 0.008986568387448657, 0.006493810256788979, -0.004388905095979234, 0.009772992650363237, -0.012308456405283547, -0.0038535141235300743, 0.007351958855286629, 0.0010058940368214359, 0.008383564366110407, 0.004947397854641176, -0.0013332229071517164, -0.004252081196101525, -0.00018940550647558702, 0.0015893873250008431, 0.006259174152793939, 0.00322449570387065, -0.003481428987688421, 0.013674431763221969, 0.008467721715616423, -0.002433345787131052, -0.006878183828582863, -0.009852855916216829, -0.012399973021528227, -0.008504248284737125, 0.009446707565175592, 0.01458013798946056, 0.0032041176582864, -0.00995245573970912, -0.011338081152249956, 0.012258428951391386, 0.010494588829435648, 0.0034259354535636755], "bias": [-0.001242095813876152, 0.008259374371971188, 0.0033466270788616104, 0.005962995479428038, -0.007558319091270461, 0.010851864997412265, -0.00508635561753342, -0.006453040877343886, -0.0059925031182048, 0.003941853747278694, -0.005398476826196168, 0.0028596950612222415, 0.009889505284618525, -0.00459683915627733, 0.006706380843510726, -0.006764970843693625, -0.0061748113434381205, 0.010851170491667266, 0.010620572631715163, 0.008043368921644761, 0.004583526570587095, 0.001898779975887632, -0.0013152313975744508, 0.007751957155164667, 0.0029590031077822965, 0.0009297668229486279, -0.0036336549587171053, 0.003896338310792616, -0.010826680015538184, 0.008369834599714349, 0.001361990788644913, -0.0074613892971640535], "is_sine": true, "in": 32, "out": 32}, {"weight": [8.051822234580498e-05, 0.02128615407622966, 0.01360675701459971, 0.004524358531436691, -0.02762475707036418, 0.015496993147766872, -0.005863220625618309, -0.0224652393442228, -0.024812406968327715, 0.021074689389946256, -0.012583240059358779, 0.008813466282471842, 0.026629632204632884, -0.01859148334980219, 0.023628150564427863, -0.019149252736427803, -0.012517671684920092, 0.0186032927643184, 0.016542809440195656, 0.024820831466948634, 0.02308598065765783, 0.005991383902870823, 0.0014306985707224593, 0.01861406321795509, 0.018217700623864106, 0.0036256925992915606, -0.012128018843619998, 0.01463052016116888, -0.02377325255315112, 0.028894201810806583, 0.004747399867636777, -0.018991465199517735], "bias": [0.03565785943906466], "is_sine": false, "in": 32, "out": 1}]